%YAML:1.0
---
detector: !!opencv-object-detector-hog
   winSize: [ 240, 160 ]
   blockSize: [ 16, 16 ]
   blockStride: [ 8, 8 ]
   cellSize: [ 8, 8 ]
   nbins: 9
   derivAperture: 1
   winSigma: 4.
   histogramNormType: 0
   L2HysThreshold: 2.0000000000000001e-01
   gammaCorrection: 1
   nlevels: 64
   signedGradient: 0
   SVMDetector: [ -1.71040546e-03, -6.21809205e-03, -3.21842567e-03,
       9.42048850e-04, 6.08156342e-03, -1.15257828e-03, 5.14099607e-04,
       4.56115790e-03, 7.72610481e-04, -6.42844301e-04, -1.56676373e-03,
       -2.17630970e-03, 2.21498450e-03, 7.14013958e-03, -4.23105492e-04,
       3.33178253e-03, 3.24624660e-03, 3.83958011e-03, 4.25633090e-03,
       -3.80959339e-03, -5.11600962e-03, -2.96445424e-03, 6.03191741e-03,
       -5.62216737e-04, 1.11611339e-03, 8.88509024e-03, 3.56785284e-04,
       5.27729455e-04, -2.09144899e-03, -2.06755637e-03, -2.44024396e-03,
       2.78255367e-03, -4.06374369e-04, 2.84502923e-04, 7.66831497e-03,
       2.67001428e-03, -2.45726260e-04, -1.44701567e-03, -6.15957193e-04,
       7.77756970e-04, 2.41434248e-03, 2.26908270e-03, 2.99884495e-03,
       5.19343186e-03, 9.33889300e-03, 1.89404108e-03, -2.38886289e-03,
       -1.57071184e-03, -2.46966397e-03, 1.95742701e-03, 3.97784822e-03,
       1.75148936e-03, 6.10394217e-03, 9.45149921e-03, -6.36952091e-03,
       -2.50339787e-03, 1.82135147e-03, -8.39554879e-04, -7.57066591e-05,
       2.66400236e-03, 7.71167033e-05, 7.29398243e-03, 5.93406055e-03,
       -2.26516905e-03, -7.15933740e-03, -2.36651860e-03,
       -3.50163522e-04, 6.44755643e-03, 3.68286786e-03, 1.87738577e-03,
       -4.98682552e-04, 2.95490841e-03, 4.26708115e-03, 3.12901870e-03,
       5.06178616e-03, 3.48770688e-03, 3.76471551e-03, 1.34328753e-03,
       1.08646252e-03, 2.96372385e-03, 7.49480911e-03, -4.79797972e-03,
       2.78540957e-03, 5.62085677e-03, 7.19326083e-03, 5.68871759e-03,
       3.63345467e-03, 2.20885687e-03, 2.52899644e-03, -2.67351116e-03,
       4.74418839e-03, -4.31235461e-03, 1.75936637e-03, 2.21074116e-03,
       6.10737037e-03, 3.75615573e-03, 5.77073428e-04, 2.56764144e-03,
       1.94715351e-04, -6.63643144e-03, -1.35288248e-02, -1.95545406e-04,
       7.36245001e-03, 5.28919976e-03, 5.92844188e-03, -5.39393339e-04,
       9.83329397e-03, -2.58001825e-03, 4.89276950e-04, 5.12964046e-03,
       4.96093417e-03, 3.66353407e-03, 7.29457056e-03, 3.26629682e-03,
       2.58144177e-03, 4.57500806e-03, -9.54109069e-04, -1.41642184e-03,
       8.25854763e-03, 9.69880261e-03, 6.38066558e-03, 4.49666055e-03,
       8.69893003e-04, 2.13179342e-03, 3.82423517e-03, -8.07914068e-04,
       -6.38087373e-03, -1.08349184e-02, 7.14868598e-04, 6.11503562e-03,
       4.39544162e-03, 2.61768978e-03, 1.90354040e-04, 1.09093925e-02,
       2.87147053e-03, -7.17795175e-03, -3.67222354e-03, 7.75342109e-03,
       7.08578061e-03, 6.67734491e-03, 1.83650374e-03, 2.00801063e-04,
       5.12720225e-03, -2.46683776e-04, 2.52202130e-03, 4.47431905e-03,
       3.98997637e-03, 1.40436040e-03, 4.15338483e-03, -2.50197668e-03,
       -1.28213933e-03, -4.31643217e-04, 2.77655176e-03, 2.85909325e-03,
       -4.38914110e-04, -1.95584958e-03, -2.92445929e-03, 5.49894944e-03,
       3.96441761e-03, 3.86773213e-03, -4.21891315e-03, -1.57718372e-03,
       -6.06268412e-03, 1.74370594e-04, 3.08886776e-03, 1.60483760e-03,
       3.70326522e-03, -3.38792591e-03, -2.98067438e-03, 3.03418445e-03,
       8.37989966e-04, -4.78647696e-03, -8.47220514e-03, 2.06804299e-03,
       3.55733791e-03, 5.94097050e-03, -1.81937896e-04, 2.71969778e-03,
       4.01382241e-03, 3.01742461e-03, 1.33372296e-03, -7.91657076e-04,
       -2.52674421e-04, 1.73855014e-03, 1.82917726e-03, 5.53731248e-03,
       3.81519017e-03, -1.23427785e-03, -2.27638194e-03, 4.12071869e-03,
       1.14292267e-03, 4.17664275e-03, -2.05105543e-03, -4.25976104e-05,
       6.02726126e-03, 1.32361555e-03, -2.09150696e-03, -1.41894561e-03,
       -4.99094324e-03, -5.14311669e-03, 6.13942835e-03, 8.62008054e-03,
       3.02232313e-03, 3.33554600e-03, 2.71816389e-03, 6.02521235e-03,
       2.13543978e-03, -5.12674591e-03, -1.80667522e-03, 4.32530604e-03,
       5.32489456e-03, 6.88419631e-03, 5.02041122e-03, 1.63882808e-03,
       2.58064450e-04, -7.31231086e-03, 3.03569273e-03, 2.46725883e-03,
       2.78213643e-03, -2.86794687e-03, -2.68096267e-03, 3.15423380e-03,
       5.80125442e-03, 1.53096276e-03, 2.22636852e-03, -4.76307934e-03,
       -4.55679698e-03, 3.17521972e-06, -2.68001691e-03, -1.37767312e-03,
       4.45903558e-03, 4.93315794e-03, 9.30993166e-03, 3.73618980e-03,
       2.39599030e-03, 2.67848000e-03, 4.51063039e-03, 4.66357591e-03,
       5.02296025e-03, 2.69457325e-03, 5.46837691e-03, 5.54461789e-04,
       -5.08714281e-03, 9.58182733e-04, 4.33570473e-03, 8.86017864e-04,
       8.34373990e-04, -3.79516440e-03, 3.47192679e-03, 3.74537683e-03,
       1.82525162e-03, -3.44627234e-03, -3.10845266e-04, 1.46049506e-03,
       2.35893438e-03, -1.60678348e-03, -3.08291195e-03, 5.45119494e-03,
       2.01073429e-03, 1.01648523e-02, 6.47669053e-03, 6.62545068e-03,
       1.47210353e-03, 1.61605771e-03, -3.26732663e-03, -6.63265865e-03,
       -1.41565385e-03, 3.51494574e-03, 2.88325688e-03, 5.84054459e-03,
       4.00837045e-03, 7.94770010e-03, 4.80038766e-03, -3.15635488e-03,
       -1.83530719e-04, 3.04896221e-03, 2.58637196e-03, 4.55328170e-03,
       4.54213377e-03, 2.59265979e-03, 2.76768836e-03, 4.18247562e-03,
       -4.73220134e-03, -8.34612828e-03, -4.37052548e-03, 1.71536289e-03,
       2.83064321e-03, 3.64867644e-03, 5.28497109e-03, 1.11500709e-03,
       1.00534067e-04, 1.81182008e-03, -1.82881451e-03, 7.41033728e-05,
       4.75693261e-03, 3.87534872e-03, 2.57526920e-03, 2.41791783e-03,
       1.96454395e-03, 2.27341871e-03, 6.31723460e-03, 4.11691377e-03,
       6.25760388e-03, 5.38961170e-03, 5.18438034e-03, -7.28610670e-04,
       4.92871925e-03, 2.34895037e-03, 5.43471891e-03, 1.04855362e-03,
       -2.99813948e-03, -1.26148027e-03, 3.60381301e-03, 4.62744618e-03,
       4.39525116e-03, -1.61926087e-03, -2.83076835e-04, -1.44518679e-03,
       2.59645586e-03, 3.53301619e-03, -8.18194123e-04, 2.54745851e-03,
       3.48299532e-03, -2.67546973e-04, 2.15244316e-03, 1.63211999e-03,
       7.44752644e-04, 6.35735132e-03, -1.75287586e-03, 6.43667113e-03,
       3.28685273e-03, 9.48975678e-04, -5.18610049e-03, 3.67214344e-03,
       -2.28923815e-03, 6.57629513e-04, 9.17581748e-03, 2.03540688e-03,
       7.48993084e-03, 5.62750874e-03, -2.50273710e-03, -2.16836855e-03,
       -2.15480756e-03, -3.21743940e-03, -2.22380878e-03, 3.78926261e-03,
       1.99515512e-03, 1.25843752e-03, 2.57032085e-03, -2.92839063e-03,
       -4.90961736e-03, 3.97694996e-03, 2.17050873e-03, 4.99681151e-03,
       1.37908412e-02, 5.37810940e-03, 4.12008539e-03, 2.58565182e-03,
       -3.11376667e-03, -1.00838348e-04, -2.24605625e-04,
       -5.77596715e-03, -1.13191153e-03, 6.22191699e-03, 4.35071625e-03,
       7.46778445e-03, 2.94417609e-03, 1.23338331e-03, 2.80665932e-03,
       -1.64197967e-03, -5.13624912e-03, 4.81415354e-03, 8.79977830e-03,
       8.28305900e-04, 4.41606855e-03, -9.34644631e-05, -2.91901315e-03,
       2.39869510e-03, -1.36171468e-03, 1.98508683e-03, 4.86149406e-03,
       1.01414071e-02, 4.66729607e-03, 4.43758024e-03, -1.75281696e-03,
       2.43962766e-03, 1.91426603e-03, -4.54002665e-03, 2.80433171e-03,
       3.19821970e-03, 1.00947674e-02, 8.52956530e-03, 1.01358937e-02,
       6.05448196e-03, 6.70086220e-03, 5.20122377e-03, -2.39122030e-03,
       1.64912257e-04, 7.92055205e-03, 1.02958614e-02, 9.02065774e-04,
       6.14759373e-03, -9.30504641e-04, -6.32085325e-03, -4.43070568e-03,
       1.80162443e-03, 4.39501228e-03, 1.04584675e-02, 8.02540965e-03,
       4.79618600e-03, 7.41955731e-03, -3.27849784e-03, -9.52936430e-03,
       -5.03381575e-03, -4.01301170e-03, 2.19717273e-03, 3.95517377e-03,
       8.43022764e-03, 4.88703093e-03, 1.21391863e-02, 6.79427804e-03,
       5.04077692e-03, 2.70068739e-03, -5.71515830e-03, 1.74806849e-03,
       4.46097227e-03, 4.12192754e-03, 5.21371048e-03, 8.67188629e-03,
       8.25429917e-04, 6.77183891e-07, -5.97837428e-03, 1.97058613e-03,
       2.51566665e-03, 6.02159696e-03, 6.85837446e-03, 4.87389555e-03,
       4.08922182e-03, -1.09171274e-03, -6.26131846e-03, -2.69502657e-03,
       1.86670281e-03, -1.45415147e-03, 5.66428388e-03, 8.78034532e-03,
       4.68872115e-03, 3.77505855e-03, 2.43792636e-03, -8.32454581e-03,
       -2.10405677e-03, 1.61487469e-03, 5.32013178e-03, 2.26130919e-03,
       5.52206207e-03, 6.78641442e-03, 2.48232414e-03, 1.87650230e-03,
       -1.71074085e-03, -2.19848403e-03, 3.64410179e-03, -1.29175733e-03,
       3.16623901e-03, 8.08609463e-03, 6.60014478e-03, -7.96240172e-04,
       2.53643538e-03, -2.06632214e-03, -1.54911773e-03, 3.35912127e-03,
       -4.13802918e-03, 5.21034584e-04, 7.38056889e-03, 3.61597491e-03,
       6.87588425e-03, 3.47246113e-03, -5.64517733e-03, -3.34389857e-03,
       7.88683537e-03, -1.45137846e-03, -1.59899204e-03, 9.02629830e-03,
       5.88745903e-03, 7.00907456e-03, 3.42378835e-03, -9.14727687e-04,
       2.84716184e-03, 8.95512640e-04, -8.55823862e-04, 1.31666881e-03,
       7.81528652e-03, 7.53747160e-03, 7.22022378e-04, -2.21977523e-03,
       -3.28408205e-03, -1.41045940e-03, 6.01413054e-03, 2.78732390e-03,
       -2.95928190e-03, 7.72403972e-03, 3.87003529e-03, 4.28809645e-03,
       5.74769336e-04, 7.40658666e-04, 5.24388906e-03, 4.93647624e-03,
       -9.15725104e-05, 2.92805396e-03, 1.03183538e-02, 1.86311861e-03,
       3.35862627e-03, -4.57519526e-03, -5.14214626e-03, 4.87778365e-04,
       3.78207793e-03, 7.87967537e-03, 6.97028358e-03, 1.27791194e-02,
       4.49672155e-03, -3.84508690e-04, -1.28746619e-02, -7.45519204e-03,
       -2.67453259e-04, 5.54025220e-03, 3.72382649e-03, -1.22358999e-03,
       5.44563541e-03, -3.28996382e-03, 3.92689649e-03, 9.12533258e-04,
       1.78567832e-03, 5.77515317e-03, 3.46982619e-03, 5.18580992e-03,
       3.55536374e-03, 8.18809960e-03, -1.65791111e-03, 1.90961745e-03,
       -9.35188588e-03, -8.42192024e-03, 3.87067767e-03, 4.12275596e-03,
       1.00410786e-02, 6.46628207e-03, 8.96723662e-03, 5.64031478e-04,
       -1.42756093e-03, -8.40836111e-03, 2.28878838e-04, 4.69400315e-03,
       2.78071780e-03, 5.80405770e-03, 8.79068673e-03, 8.00356083e-03,
       4.32996731e-03, 3.05300066e-03, 1.08248685e-04, 7.00187986e-04,
       3.41500901e-03, 6.53391122e-04, 7.11305114e-03, 7.40565173e-03,
       8.78614094e-03, 3.03965528e-03, -1.43913634e-03, -5.67531819e-03,
       -4.96787764e-03, 4.13147500e-04, -1.92766532e-03, -1.15212414e-03,
       5.28470566e-03, 6.26490824e-03, 8.52502510e-03, 7.24113779e-03,
       6.93470193e-03, -5.87908085e-03, -1.08157843e-03, 1.32205052e-04,
       3.00519564e-03, 6.32522209e-03, 5.88019937e-03, 7.99783692e-03,
       6.18477724e-03, -7.66024168e-04, -4.10748925e-03, -7.21520919e-04,
       1.44021260e-03, 4.80280910e-03, 8.41470249e-03, 8.07650201e-03,
       1.23290727e-02, 9.46419965e-03, 8.39444619e-05, -6.28157333e-03,
       6.02653483e-04, -8.69982038e-03, -2.08461832e-04, 4.91188699e-03,
       3.30511155e-03, 8.52105021e-03, 8.15951265e-03, -5.11115475e-04,
       -9.61713400e-03, -8.19276180e-03, -3.41777736e-03, 5.87304449e-03,
       8.64923652e-03, 4.21911711e-03, 5.70336939e-04, 8.68003909e-03,
       -8.34214094e-04, -8.50492530e-03, -1.08884647e-02, 7.91441556e-03,
       7.67559465e-03, 5.94317215e-03, 7.07201893e-03, 4.01147595e-03,
       3.24117066e-03, -1.70861522e-03, -6.22337358e-03, 3.16254725e-03,
       6.15734886e-03, 5.38418815e-03, 3.03119794e-03, 8.59304238e-03,
       1.15171587e-03, 2.94181425e-03, -1.20603794e-03, -4.75809351e-03,
       1.30337628e-03, 1.21501624e-03, 8.21042247e-03, 6.38721744e-03,
       7.33508822e-03, -1.63237820e-03, 6.87703909e-03, 1.59117964e-03,
       -9.52602178e-03, -4.13558446e-03, -5.06336195e-03,
       -6.89522349e-05, 3.19554261e-03, 6.96107186e-03, -8.16829596e-03,
       4.05808957e-03, 3.18678911e-03, -5.63371694e-03, -8.02590232e-03,
       2.88546644e-03, 4.13772010e-04, 4.11709724e-03, 5.68997255e-03,
       -1.23524119e-03, 6.40926696e-03, 3.29551823e-03, 7.18192139e-04,
       3.47039616e-03, 2.07724795e-03, -4.79409844e-03, 4.69200918e-03,
       5.64685697e-03, 9.88434162e-03, 8.86172522e-03, 8.15784838e-03,
       4.05990798e-03, 7.96956383e-03, -6.26430474e-03, 1.39594136e-04,
       4.38169111e-03, 6.25391956e-03, -8.36520735e-03, 5.21326205e-03,
       6.75537810e-03, -2.57413049e-04, -6.28849305e-03, -9.07939859e-03,
       -1.57281203e-04, 3.77070857e-03, 5.85033372e-03, -3.09733534e-03,
       6.28564740e-03, 4.96425526e-03, -1.83193979e-03, -7.31237093e-03,
       3.21403844e-03, -1.11258810e-03, -3.51041183e-03, -2.87542422e-03,
       -2.80748284e-03, -4.70122497e-04, 3.15762404e-03, 8.35288875e-03,
       5.56732295e-03, 4.09327913e-03, -1.96800989e-04, -7.39927578e-04,
       -2.89592310e-03, -3.19362781e-03, -1.27882278e-03, 8.03683943e-04,
       7.05882860e-03, 2.78990762e-03, -7.56999652e-04, 3.13502760e-03,
       -1.71104097e-03, 7.50345644e-04, -2.96036410e-03, -5.22092218e-03,
       -3.28189228e-03, 1.69150322e-03, 1.71290210e-03, 7.85713643e-03,
       3.07166856e-03, -3.30992136e-03, 1.43564655e-04, -7.19050365e-03,
       -4.76313243e-03, -2.45361449e-03, -1.00971234e-03,
       -1.54886948e-04, 2.67072511e-03, 3.67344962e-03, 1.54516764e-03,
       -1.23413967e-03, -2.70206569e-04, -1.57806627e-03, 3.34696518e-03,
       6.40770979e-03, 8.10514111e-03, -4.60954732e-04, 6.55997370e-04,
       -3.70126031e-03, -1.25973544e-04, -8.25259776e-04,
       -1.09604283e-04, -5.61982393e-04, -3.88061139e-03, 9.51498805e-04,
       5.70609653e-03, 2.28045229e-03, -4.34586825e-03, -8.54334678e-04,
       -3.50477360e-03, -1.53193227e-03, 7.27495784e-03, 1.04886470e-02,
       7.43413810e-03, 1.35417574e-03, -3.53022222e-03, -9.98221710e-03,
       -6.20247656e-03, -1.56567281e-03, -3.10085528e-03, 3.80238332e-03,
       8.64338409e-03, 3.86302895e-03, 3.07103898e-03, 4.24852641e-03,
       2.31543928e-03, 2.99303839e-03, 4.24307189e-04, 3.57193593e-03,
       9.60852660e-04, 2.41507171e-03, 3.60669987e-03, 4.83570358e-04,
       -5.05633559e-03, -1.38026592e-03, 3.74122569e-03, 6.17934274e-04,
       3.34708951e-03, 2.22603604e-03, 1.16106747e-02, 7.54111167e-03,
       -3.80113284e-04, 2.72748619e-03, -2.79958849e-03, -6.15505036e-04,
       -3.61839333e-03, -1.35660567e-03, 3.79797327e-03, 8.69762059e-03,
       7.99607299e-03, 2.62630871e-03, 3.40509415e-03, -3.18393158e-03,
       9.61084268e-04, -8.12818669e-03, -1.45881763e-03, 1.21228921e-03,
       5.45322755e-03, 1.25913499e-02, -6.58788346e-03, -1.01137012e-02,
       -1.14080915e-03, 3.47890425e-03, 3.20440391e-03, 3.68915778e-03,
       4.42971336e-03, 1.21735530e-02, 5.94962807e-03, -8.41203891e-03,
       -4.83761821e-03, 3.36786034e-03, 1.95523095e-03, 1.44986529e-03,
       2.53100460e-03, 4.98042256e-03, 1.11784814e-02, 5.47988573e-03,
       -1.95089204e-03, 2.20396882e-03, 1.28566322e-03, 9.69900168e-04,
       -2.91048520e-04, 8.08515906e-05, 3.71119822e-03, 6.66670129e-03,
       8.96972604e-03, -1.07397838e-02, -6.27403380e-03, 9.55132826e-04,
       -2.80167325e-03, -1.81355688e-03, -8.37828615e-04, 9.47332568e-03,
       1.13315200e-02, 1.03578868e-03, -8.58295709e-03, -1.55799743e-03,
       -1.93115161e-03, -2.01083370e-03, -2.07503486e-04,
       -1.60994742e-03, 1.04771706e-03, 5.04869595e-03, 1.63706508e-03,
       -2.92830775e-03, -1.77756418e-03, 3.21856863e-03, 4.31301026e-03,
       7.18495110e-04, 1.93139334e-04, 3.97560972e-04, 5.85321337e-03,
       3.08123138e-03, -1.10235959e-02, -7.65666924e-03, -3.94687615e-03,
       -2.58896197e-03, -4.65583708e-03, -3.18093714e-03, 3.24970367e-03,
       5.03273867e-03, -1.53714872e-03, -3.25805135e-03, 4.91335336e-03,
       4.53203730e-03, 6.50897622e-03, -1.38191943e-04, 2.07458483e-03,
       2.71829660e-03, 4.65590041e-03, -1.18340785e-03, -6.39695255e-03,
       9.40373691e-04, 4.44102706e-03, 6.92467066e-03, -1.54095981e-03,
       -4.31492954e-04, -8.88995710e-04, 5.96958166e-03, 5.18045016e-03,
       -5.23339864e-03, 5.47269126e-03, 4.38206643e-03, 8.30020197e-03,
       2.60433473e-04, 5.72504916e-07, -6.95423782e-03, -2.68652011e-03,
       -5.98231936e-03, -6.33982010e-03, 7.36242766e-03, 4.94049769e-03,
       7.16606667e-03, -9.07221285e-04, 4.60009265e-04, 1.15328026e-03,
       -4.62240365e-04, -3.29266698e-03, -7.63099175e-03, 1.44826248e-03,
       3.80976428e-03, 5.99509804e-03, -1.25590840e-03, -2.57961289e-03,
       -1.56898785e-03, -6.14204584e-03, -4.47462220e-03, 2.55790679e-03,
       7.25229597e-03, 4.52792412e-03, 6.23582024e-03, 3.26182996e-03,
       1.80031243e-03, -1.35113636e-03, -3.13911284e-03, 7.23765057e-04,
       4.95314831e-03, 8.19308497e-03, -3.27514135e-03, 7.32870947e-04,
       -1.87458843e-03, 2.47878348e-03, -3.58789437e-03, 1.51940773e-03,
       7.24016130e-03, -6.89382199e-04, -2.57841602e-04, 1.24370458e-03,
       7.95080559e-04, 3.96890595e-04, -1.99721148e-03, -2.62458879e-03,
       -1.47865841e-03, 7.12808641e-03, 4.01199097e-04, 9.86047089e-04,
       -8.00562464e-03, -3.04177171e-03, -3.58616840e-03, 3.29155987e-03,
       -1.06800245e-02, -8.87304370e-04, 5.24473796e-03, 8.43097176e-03,
       8.02752282e-03, 6.54188043e-04, 2.80316977e-04, -6.45678770e-03,
       -5.22661372e-04, -3.24787595e-03, 3.91478091e-03, 9.24757216e-03,
       1.08298976e-02, 2.34550587e-03, 2.14053923e-03, -4.47817100e-03,
       -1.00939469e-02, -6.22145087e-03, -5.91618009e-03, 1.73146417e-03,
       9.63409804e-03, 8.91386718e-03, 7.86747131e-03, -4.01252322e-03,
       2.22472800e-03, -6.84084930e-03, 2.58328463e-03, -2.70446367e-03,
       8.45473632e-03, 1.03969043e-02, 7.15113338e-03, 2.57063890e-03,
       1.59035565e-03, -6.64111867e-04, -8.43534898e-03, -9.20101348e-03,
       -5.97123988e-03, 5.17318165e-03, 7.04180636e-03, 9.90367215e-03,
       2.67096539e-03, 4.88363719e-03, -1.89964869e-03, -1.25516206e-03,
       -4.91950959e-05, 2.18212022e-03, 3.73915141e-03, 1.11722229e-02,
       7.07910582e-03, -6.52404909e-04, 2.01979675e-03, 3.44500324e-04,
       3.47594824e-03, 1.32878241e-03, 2.48080236e-03, 3.53871379e-03,
       7.10175419e-03, 4.53075627e-03, 4.44557844e-03, 5.41215576e-03,
       -1.07695861e-03, -9.49661597e-04, -3.54221161e-03,
       -1.25736475e-03, 2.33271648e-03, 4.67894040e-03, 9.36717447e-03,
       2.95937178e-03, 7.44365575e-03, 1.83842459e-03, -3.10655159e-04,
       -3.52532696e-03, -4.91374871e-03, -5.44507755e-03, 3.83709650e-03,
       2.54708529e-03, -1.85389188e-03, -2.04508091e-04, 1.67980290e-03,
       3.68255540e-04, 3.00644734e-03, 8.14916057e-05, -3.45934788e-03,
       -4.54232609e-03, 7.26142712e-03, 7.70808896e-04, 4.59329784e-03,
       9.98256821e-03, 4.44705412e-03, 1.25008600e-03, 9.04962479e-04,
       -6.02981774e-03, -4.65916295e-04, 2.06377753e-03, 5.65893902e-03,
       7.43230525e-03, 5.83900558e-03, -6.05793064e-03, 1.29686901e-03,
       -4.04516654e-03, -8.26590136e-03, -6.65568421e-03, 5.19352639e-03,
       4.82635014e-03, 3.93788330e-03, 7.66846724e-03, 3.56420933e-04,
       1.03278710e-02, 2.23729201e-03, -8.55412683e-04, 1.73056222e-04,
       2.48231855e-03, 1.59592577e-03, 4.04719962e-03, 1.03084929e-02,
       3.15783941e-03, -7.49267696e-04, -5.51082846e-03, -2.46489746e-03,
       5.25097270e-03, 1.29156886e-03, 5.77544654e-03, 5.11939498e-03,
       8.87418352e-03, 6.52213674e-03, 4.38494812e-04, -3.03012086e-03,
       7.14241702e-04, 5.58065763e-03, 1.20540697e-03, 3.62002268e-03,
       1.63480116e-03, 7.90199358e-03, -1.03123835e-03, 2.14203098e-03,
       -4.60756849e-03, -6.12935226e-04, 4.77684289e-03, 4.05323313e-04,
       1.40130066e-03, 5.70638105e-03, 8.92794691e-03, -9.78266587e-04,
       -3.49524687e-03, -7.73232244e-03, -1.56471541e-03, 4.94054426e-03,
       5.02782688e-03, 5.21672936e-03, 4.51356126e-03, 6.05702586e-03,
       3.79736931e-03, 4.80008498e-03, 7.85097305e-04, 4.53218166e-03,
       5.20362332e-03, 1.81140273e-03, 4.25249944e-03, 1.77402035e-04,
       2.97954632e-03, 7.26618664e-03, 4.31564683e-03, 2.57533771e-04,
       2.74508004e-03, 2.77782069e-03, -4.40420536e-03, -4.83304990e-04,
       3.87474475e-03, 5.35900891e-03, -2.53492477e-03, -1.67158979e-03,
       -5.29276161e-03, -2.10456713e-03, -7.52597116e-04, 6.19539991e-04,
       -4.52747988e-03, -3.01988004e-03, 2.46929773e-03, 6.74234703e-03,
       6.30206254e-04, 9.50304733e-04, 7.24328449e-03, 4.81787650e-03,
       2.45413953e-03, 1.93685771e-03, -2.48919660e-03, 4.12306655e-03,
       9.21952073e-03, -3.49624286e-04, -1.44212344e-03, 1.02295110e-03,
       3.45552922e-03, 6.16157951e-04, -2.33532293e-04, -2.17274623e-03,
       6.01456547e-03, 3.59025993e-03, -4.65174206e-03, -2.48093042e-03,
       1.78146735e-03, 3.13365320e-03, 3.16235633e-03, 6.70583046e-04,
       -2.69573997e-03, 8.20827147e-04, 5.71528869e-03, 9.69050045e-04,
       1.61558483e-03, 6.72055827e-03, 2.81322608e-03, 4.81096795e-03,
       8.39775614e-03, 3.67607456e-03, 4.64332476e-03, -2.06213444e-03,
       -2.75856350e-03, -4.46632272e-03, 5.69737377e-03, 2.08734418e-03,
       -3.81574943e-03, 1.31468568e-03, -4.52472043e-04, 4.88057919e-03,
       4.74384549e-04, -3.78155935e-04, -1.79313472e-03, 1.32266863e-03,
       3.52680625e-04, -1.82926259e-03, 1.91136217e-03, -4.21563775e-04,
       1.75012194e-03, 1.16476323e-03, 5.48620382e-03, 3.45779792e-03,
       9.97319235e-04, 3.18570272e-03, 1.98232848e-03, 6.80258684e-03,
       2.05294089e-03, 4.81095444e-03, -2.78150407e-03, 7.41653028e-04,
       -3.25001753e-03, 2.89900159e-03, 4.36936831e-03, 1.89294934e-03,
       7.35379639e-04, 6.58457517e-04, 2.76736729e-03, 4.46340302e-03,
       7.30630755e-03, 8.51016585e-03, 7.74904853e-03, 7.02895364e-03,
       -1.24692437e-04, 2.78257811e-03, 4.37411290e-05, 1.09337200e-03,
       -1.77625963e-03, 4.31090780e-03, 3.28767370e-03, 6.85619947e-04,
       2.51496560e-03, 3.49274138e-03, 3.94752156e-03, 3.87236010e-03,
       9.12861957e-04, -2.74977391e-03, -1.66342489e-03, -4.78465902e-03,
       -6.66293269e-03, -1.05531151e-04, 2.07012729e-03, -5.90847980e-04,
       1.38420274e-03, 4.96774155e-04, 3.27505148e-03, 3.74018331e-03,
       7.54685840e-03, 8.66090599e-03, 4.43977816e-03, 5.82203548e-03,
       1.10933674e-04, 3.34956986e-03, 5.05880686e-03, -1.23381114e-03,
       4.89193620e-03, 3.27660993e-04, -1.41684664e-03, 5.02625830e-04,
       5.54835051e-03, 3.80225177e-03, 5.90387871e-03, 5.34409331e-03,
       4.49872762e-03, -1.51602819e-03, -3.96932987e-03, -3.37397959e-03,
       8.67653580e-04, -3.47122463e-04, -6.62992999e-04, 4.06723982e-03,
       6.87933899e-03, 1.08422022e-02, 7.21282326e-03, -1.31454217e-04,
       -3.14721302e-03, -3.28964787e-03, 7.92961940e-03, 5.18706068e-03,
       1.01336744e-03, 3.58840753e-03, 1.54295273e-03, 3.97889409e-03,
       -6.06527261e-04, -2.08377279e-03, -1.34565739e-03,
       -8.19541281e-04, 4.76669194e-03, 2.26035947e-03, 3.58417304e-03,
       4.72065154e-03, 2.18423898e-03, -2.94152251e-03, -1.04231713e-03,
       -6.40349183e-03, -9.43987444e-03, 3.39892344e-04, 4.90617147e-03,
       3.68448347e-03, 7.62804132e-03, 8.60721990e-03, -9.58202989e-04,
       -3.50893592e-03, -6.95536472e-03, -5.51888952e-03, 6.43627765e-03,
       6.29877346e-03, 2.07175175e-03, 4.75985650e-03, 9.14635789e-03,
       2.44667591e-03, -8.87343253e-04, -8.47780053e-03, -1.25739447e-04,
       9.34972055e-03, 5.34941861e-03, 3.65782250e-03, 3.00199003e-03,
       2.72731134e-03, -1.61244394e-03, -1.66705565e-03, -7.69528979e-03,
       -1.93535641e-03, 2.85324384e-03, -5.73072350e-04, 1.26608054e-03,
       2.97552627e-03, 4.77593672e-03, -3.82283557e-04, -2.02744408e-03,
       -9.29924473e-03, 5.83134170e-06, 9.16951150e-03, 3.38982302e-03,
       3.82807059e-03, -2.29872385e-04, 7.55169755e-03, 2.90318369e-03,
       -3.35243763e-03, -5.41502051e-03, -1.98965287e-03,
       -2.33305167e-04, 1.91169151e-03, 2.76033115e-03, -3.97433434e-03,
       7.29864836e-03, 5.87686151e-03, 4.84847755e-04, -4.08922322e-03,
       1.77262886e-03, 3.81054590e-03, 2.78042862e-03, 2.40046997e-03,
       -1.40773761e-03, 1.70243462e-03, -2.44349125e-03, -2.50436668e-03,
       -2.73761281e-04, 2.26346706e-03, -1.63869374e-03, 1.08144968e-03,
       3.57244257e-03, -3.17747681e-03, -1.28551992e-03, -6.20187260e-03,
       2.25971176e-04, 3.84233519e-03, -1.23978686e-03, -6.58843550e-04,
       3.29475617e-03, 2.78768013e-03, -3.48031125e-03, 7.46346684e-03,
       6.03760034e-03, 3.25775309e-03, -5.59099903e-03, -2.22048536e-03,
       5.12051955e-03, 4.53198142e-03, 1.40102208e-03, -1.56343725e-04,
       7.34973233e-04, 6.88861910e-05, -1.41384325e-03, -6.75827032e-03,
       -7.66323647e-05, -3.89297493e-03, -2.63783522e-03, 1.59213156e-03,
       -2.23720027e-03, 3.46664502e-03, -4.19183914e-03, 1.62953255e-03,
       3.01187416e-03, -1.03867427e-03, -4.73343214e-04, -3.74948909e-03,
       -3.86962737e-03, -2.88503990e-03, -3.07958573e-03,
       -6.55595027e-03, -7.91495107e-03, -1.89181545e-03,
       -7.30742887e-03, 3.37202800e-03, 3.79419397e-03, 5.55130048e-03,
       8.65908631e-04, -3.58484103e-04, -1.14976848e-03, 5.80440601e-03,
       -4.58991359e-04, 7.23907200e-04, 7.70991296e-03, 4.77085449e-03,
       2.49166135e-03, 2.15838826e-03, -5.70063654e-04, -9.49859561e-04,
       -2.81811645e-03, -5.01923088e-04, -1.01560401e-02, 6.25705998e-03,
       5.76552888e-03, 3.69409448e-03, -1.13867247e-03, 2.41566426e-03,
       -3.89730732e-04, 9.72660538e-03, -2.32067960e-03, -8.31482653e-03,
       5.44659235e-03, 5.77600813e-03, 4.27442283e-04, 1.94025645e-03,
       2.47345283e-03, 3.59140872e-03, 9.60654765e-03, 1.54847850e-03,
       3.34143289e-03, 4.33024578e-03, 1.91846013e-03, 2.05534324e-03,
       5.51357865e-03, 4.43682919e-04, 4.37502796e-03, 5.76448534e-03,
       4.53614956e-03, 3.92127316e-03, -3.85674392e-03, -8.41848273e-03,
       -2.91508110e-03, 4.17500315e-03, 9.72475391e-04, 5.17072529e-03,
       1.13146426e-02, 6.21279050e-03, -5.96944476e-03, 3.11474036e-03,
       4.94721532e-03, 9.53227165e-04, -5.27335273e-04, -9.18291858e-04,
       3.68275377e-03, 8.93216766e-03, 1.83718500e-03, -5.17240772e-03,
       -5.64993080e-03, -3.13643087e-03, 2.68799398e-04, -5.90463309e-03,
       -2.22352473e-03, 2.94661825e-03, 7.54602160e-03, -1.71838631e-03,
       4.02434357e-03, -6.99851080e-04, -4.73698694e-03, -7.70412502e-04,
       -2.72639119e-03, -1.09167118e-03, 3.54216364e-03, 6.40550349e-03,
       8.61087069e-03, 1.12370076e-02, 7.55603891e-03, -2.86579086e-03,
       -1.03333395e-03, -7.97995832e-03, -3.73414299e-03,
       -9.33425152e-04, -1.17314933e-03, 8.52886308e-03, -5.50976302e-03,
       -1.46731746e-03, -2.28919950e-03, 8.10764832e-05, -4.43020463e-03,
       1.84578914e-03, 3.20820347e-03, 4.83203586e-03, -5.57932544e-05,
       2.30569931e-05, 4.30587400e-03, -3.08427238e-03, 3.97977559e-03,
       -7.01294048e-03, 2.77715852e-03, 5.00966934e-03, 4.04875912e-03,
       2.43902672e-03, 6.58050738e-03, 3.42407846e-03, -1.66067365e-03,
       -1.42793939e-03, -3.20281251e-03, 7.38001196e-04, 4.11828136e-04,
       -2.77878513e-04, 5.83320530e-03, -9.35224257e-03, 4.70316845e-05,
       3.31587647e-03, -1.05342281e-03, -3.62984324e-03, -9.31804709e-04,
       2.58490304e-03, 1.89172907e-03, -4.24011052e-03, 3.29928682e-03,
       5.46261526e-06, -2.22808146e-03, 3.84241878e-03, 2.73194164e-04,
       2.84357299e-03, 2.95102084e-03, 6.69246027e-03, 5.79462992e-03,
       -6.52966322e-03, -5.10606333e-04, 3.85482749e-03, 6.59032492e-03,
       3.45150870e-03, 2.04608380e-03, 3.16100544e-03, 3.26330238e-03,
       -5.49029210e-04, -6.43084617e-03, -8.32057965e-04, 3.94017389e-03,
       2.28102086e-03, 2.69774027e-04, -3.59324797e-04, 1.88811682e-04,
       5.57797612e-04, -6.47012377e-03, -2.80829286e-03, 3.04087676e-04,
       6.50841650e-03, 7.59387715e-03, 3.85103660e-04, 5.21895289e-03,
       5.29921334e-03, 3.02012055e-03, -2.30496284e-03, -1.10547701e-02,
       7.97149842e-05, 4.31753835e-03, 8.58559459e-03, 1.05615119e-02,
       2.03246111e-03, 2.91570286e-05, 1.38600601e-03, -6.45216648e-03,
       -8.90740473e-03, -6.19796431e-03, 4.98645706e-03, 8.04709364e-03,
       8.43495317e-03, 3.88973160e-03, 2.89805396e-03, -3.34541895e-04,
       -4.16870229e-03, -3.47870111e-04, 4.59841173e-03, 8.73416848e-03,
       9.54385474e-03, 4.26739035e-03, 2.89700995e-03, 7.82931875e-03,
       2.68346514e-03, -9.68839624e-04, -4.68683941e-03, 2.10593920e-03,
       4.26647952e-03, 4.70018620e-03, 3.37836309e-03, -1.97462761e-03,
       4.03423235e-03, 1.04206330e-04, -2.52833543e-03, -7.10834842e-03,
       -3.39674787e-03, 5.81929553e-03, 8.17964412e-03, 4.59261844e-03,
       -1.14172453e-03, 3.16098053e-03, -7.41807744e-04, -5.63026825e-03,
       -3.41248233e-03, 3.39261070e-03, 8.14608578e-03, 7.27034919e-03,
       -1.11122278e-03, -3.21931602e-03, -1.42171758e-03,
       -1.81760965e-03, -9.19362158e-03, -2.95379711e-03, 7.11846369e-05,
       4.72169340e-04, 7.86182994e-04, 3.84978275e-03, -3.31843086e-03,
       1.12084032e-04, -1.68652763e-03, 4.58243955e-03, -1.40735577e-03,
       7.03533762e-04, -4.30219341e-03, 2.78776116e-03, 6.34188950e-03,
       4.94440133e-03, -6.84520509e-03, -4.65247734e-03, 3.49113578e-03,
       -5.97639533e-04, 6.01828983e-03, 6.03727531e-03, 4.43702377e-03,
       3.06619657e-03, -9.63969389e-04, 2.14428129e-03, 7.41164549e-04,
       -2.15905136e-03, 2.92517454e-03, 4.27764561e-03, 3.59585648e-03,
       5.65800536e-03, 8.57512280e-03, 7.51133543e-03, 9.39609774e-04,
       -6.18245034e-03, 5.23020932e-03, 1.78468111e-03, 6.06327550e-03,
       -3.28613492e-03, 3.85141186e-03, 1.83613575e-03, 3.00409365e-03,
       -3.02510126e-03, 1.10200897e-03, 2.14657467e-03, -1.11285946e-03,
       2.17864523e-03, 8.22642003e-04, 1.69937790e-03, -5.86223323e-03,
       -6.20927056e-03, -7.25734001e-03, 6.48561574e-04, -7.52887339e-04,
       1.60538463e-03, 3.75743839e-03, 7.75276218e-04, 4.06393409e-03,
       8.00429005e-03, 5.22534130e-03, -5.91856777e-04, -1.37237087e-03,
       3.92669020e-03, 7.05761975e-03, 6.04211527e-04, -2.19613709e-03,
       -2.16398132e-03, -1.60228519e-03, -2.89646955e-03,
       -9.02907515e-04, -2.17425195e-03, 2.33991630e-03, 2.27097562e-03,
       2.10218504e-03, 2.18638941e-03, 1.81932165e-03, -1.12823583e-03,
       -7.03255006e-04, -4.59964061e-03, 3.19611910e-03, 5.07783983e-03,
       3.89512279e-03, 1.44116674e-03, 3.21816769e-03, 5.18927118e-03,
       -2.30345665e-03, -1.58409378e-03, -2.61707744e-03,
       -5.39058261e-03, -2.15667463e-03, 9.20146331e-03, 5.91128925e-03,
       -1.93949335e-03, -1.02711143e-03, -8.76670354e-04, 2.19724863e-03,
       3.81021644e-03, 4.01178701e-03, 2.31237221e-03, 4.40855045e-03,
       3.29132564e-03, -8.41713845e-05, 4.23176819e-03, 7.08642555e-03,
       6.48485404e-03, 5.44537883e-03, -1.19981857e-03, 2.17615787e-04,
       4.25897958e-03, 6.18182961e-03, 7.25414604e-03, 1.03171431e-02,
       -1.29109097e-03, 9.16310761e-04, -4.56358679e-03, -9.60716046e-03,
       6.97732612e-04, 5.90425124e-03, 7.70894997e-03, 7.19528971e-03,
       1.27051212e-02, 2.83792964e-03, 6.44767191e-03, -2.69090012e-03,
       -4.20130463e-03, 4.84249415e-03, 5.09420456e-03, 5.06802090e-03,
       7.70120602e-03, 9.67309903e-03, 4.51093307e-03, 2.20903335e-03,
       -1.76879705e-03, -8.29985179e-03, 1.17581287e-04, 3.06180818e-03,
       5.28943352e-03, 9.69051197e-03, 1.43291429e-02, 4.43198811e-03,
       9.94293834e-04, -3.61552672e-03, -1.00251148e-02, 1.87705574e-03,
       5.88539056e-03, 4.01615771e-03, 4.29660641e-03, 5.27330628e-03,
       2.71375617e-03, 4.76884469e-03, -4.18260880e-03, -3.35046323e-03,
       9.75585170e-03, 6.44938275e-03, 1.60758896e-03, 3.88808642e-03,
       5.13159437e-03, -6.47506071e-03, -3.28912796e-03, -7.08179642e-03,
       -9.24968335e-04, 9.65575315e-03, -2.11157463e-03, 1.49117259e-03,
       1.60109985e-03, 5.32382727e-03, 3.23279412e-03, 2.28484254e-03,
       -1.64019153e-03, -4.85712057e-03, 9.74731054e-04, 7.70615926e-03,
       5.78071084e-03, 4.75603575e-03, 1.22183969e-03, -7.94719346e-03,
       -4.58110771e-05, -2.82748765e-03, -3.09404125e-03, 2.99447984e-03,
       2.50740777e-05, 9.88643267e-04, 2.69903545e-03, 5.78212226e-03,
       -8.68443400e-03, -4.94426815e-03, -6.06187060e-03,
       -3.72339785e-03, 3.09726856e-05, -1.62194204e-03, -1.75976788e-03,
       2.43890635e-03, 4.96360613e-03, 1.46802119e-03, -6.26473397e-04,
       9.97422845e-04, 1.12364569e-03, -2.76182243e-03, 4.58409684e-03,
       5.18985698e-03, 1.06181856e-02, 6.31843274e-03, -8.71638115e-03,
       6.48447121e-06, -5.93885081e-03, -3.54967965e-03, -2.58062896e-03,
       4.26804600e-03, -1.11380382e-03, 9.65480693e-03, 1.06705865e-02,
       5.49742952e-03, 8.98583978e-03, 5.44479722e-03, 5.02405083e-03,
       2.32902518e-03, 8.50120618e-04, 7.92155974e-04, 3.04649631e-03,
       1.66208402e-03, 6.56532065e-04, 3.21374997e-03, 2.63437280e-03,
       1.56954769e-03, -5.93332294e-03, 4.06027399e-03, 3.94448405e-03,
       3.07707954e-03, 1.29719637e-03, 1.35591545e-03, 2.10542162e-03,
       -1.29402522e-03, -2.19379016e-03, -3.10624996e-03, 2.48902850e-03,
       -3.27253900e-03, 3.41168116e-03, 8.61830730e-03, 8.23703129e-03,
       8.89532082e-03, 5.14125684e-03, 2.77118082e-03, 4.16469673e-04,
       -6.11830223e-03, -6.83871517e-03, -1.84203486e-03, 4.45960835e-03,
       2.32369523e-03, 4.04538261e-03, 9.87202115e-03, -1.01957866e-03,
       -7.13799195e-03, 1.73729681e-03, -2.32153121e-04, 2.58016610e-03,
       3.65703041e-03, 1.81783352e-03, 2.88069760e-03, -1.11334817e-03,
       -3.60088120e-03, -1.41963165e-03, -1.96168711e-03,
       -1.94274494e-03, 4.37538512e-03, 3.23117268e-03, 8.27008579e-03,
       7.45991850e-03, 6.95739780e-03, 2.13428889e-03, -5.39800443e-04,
       -4.53455374e-03, -3.67620960e-03, -6.71166345e-04, 3.52829369e-03,
       1.87241100e-03, 2.14853301e-03, 4.16878844e-03, -2.37023225e-03,
       -4.85918485e-03, -1.75483513e-03, 3.71077307e-03, 4.28351294e-03,
       5.19279484e-03, 5.96658047e-03, 3.87210888e-03, 2.20909645e-03,
       -2.10287562e-03, -7.39220018e-03, -4.89744358e-03,
       -1.70222216e-03, 6.42023573e-04, -3.35932709e-03, 6.38386351e-04,
       4.05584276e-03, 6.30070269e-03, 3.17748846e-03, -5.63038560e-03,
       -7.89449550e-03, 2.38648523e-03, 4.03532479e-03, 2.30086874e-03,
       -3.41421110e-03, 4.91253892e-03, 8.03144183e-03, 7.56356516e-04,
       -1.02274120e-02, -4.27769963e-03, 3.41354846e-03, 8.94871366e-04,
       1.27529434e-03, 2.71075778e-03, 7.12403422e-03, 5.93083305e-03,
       -1.23449322e-03, -1.10474536e-02, -1.18927686e-02,
       -2.15839874e-03, -3.40453745e-03, -2.31172610e-03, 1.36089802e-03,
       8.32633581e-03, 9.40663461e-03, 6.87304651e-03, -1.09252855e-02,
       -1.31721958e-03, 4.91197547e-03, 1.11386506e-03, -1.99124566e-03,
       -3.67365754e-03, 4.48897295e-03, 6.95800595e-03, -7.47116064e-05,
       -9.13010631e-03, 2.14742220e-04, 5.18226065e-03, -3.32999043e-03,
       -4.09887871e-03, -7.43907737e-03, -2.41847686e-03, 6.51266717e-04,
       -2.80472357e-03, -1.28510064e-02, -9.00834799e-03, 1.25010079e-03,
       -2.97995773e-03, -4.05667350e-03, -2.78085331e-03, 9.23773274e-03,
       1.41128339e-02, 9.73982736e-03, -6.08873367e-03, -5.60495071e-03,
       -1.23224373e-03, -1.06929801e-02, -7.15803308e-03,
       -5.32513624e-03, 1.17492042e-02, 9.80638899e-03, 4.86986386e-03,
       -1.21758748e-02, 1.87255931e-03, 3.25328251e-03, -1.30048196e-03,
       2.51253205e-03, 4.32052620e-04, 3.13471840e-03, 1.75341114e-03,
       -3.10077542e-03, -1.25544453e-02, -1.28175982e-03,
       -3.51796625e-03, -3.94742191e-03, 2.92548956e-03, 1.18190143e-03,
       2.92820414e-03, 1.69892306e-03, -4.66435030e-03, -9.63828899e-03,
       -6.67506084e-03, -3.61394091e-03, -8.38439260e-03, 1.15931069e-03,
       9.60861740e-04, 1.07462276e-02, 8.00132379e-03, 5.45157678e-03,
       -9.45953559e-03, -9.23348777e-03, -4.20340709e-03,
       -4.78952751e-03, 5.31811919e-03, 1.24985864e-03, 5.14012296e-03,
       5.79913799e-03, 4.83439630e-03, -6.36293087e-03, 3.16495355e-03,
       -2.89816435e-05, -1.71953673e-03, -4.44702564e-05, 2.02489737e-03,
       1.40862749e-03, -1.41271579e-04, -1.44391425e-03, -7.63127697e-04,
       4.32471948e-04, -1.20481499e-03, -2.83438829e-03, 8.51015851e-04,
       -2.51916843e-03, 2.52931495e-04, -4.79097618e-03, 1.98198226e-03,
       2.57489667e-03, -7.08961044e-04, 6.76375275e-05, -4.81973955e-04,
       8.15959575e-05, 1.63280335e-03, 1.07429433e-03, 5.35829784e-03,
       6.72074547e-03, 3.50273633e-03, 1.84249890e-03, -6.66913157e-03,
       -6.82041561e-03, -3.20316013e-03, -5.72694791e-03, 1.98161486e-03,
       1.71275740e-03, 2.25338642e-03, 4.25483100e-03, 4.47856169e-03,
       -4.97816643e-03, -6.01088628e-03, -2.11517606e-03,
       -1.61515502e-03, 4.17928724e-03, -2.28131685e-04, 3.64533276e-03,
       7.31800776e-03, 4.39131446e-03, -3.26933456e-04, -5.33315493e-03,
       -2.61773751e-03, -1.72799162e-03, 6.94435148e-04, -1.89826067e-03,
       -2.48717330e-03, 2.68016499e-03, 2.84735369e-03, -4.38747555e-03,
       -3.84423323e-03, -3.63720465e-03, -3.35867796e-03, 6.84321253e-03,
       5.03961695e-03, 4.04724106e-03, -7.95463624e-04, 4.18080948e-03,
       -2.89701694e-03, -6.02843193e-03, -3.93410260e-03,
       -2.65894015e-03, 4.33226908e-03, 7.51203578e-03, 3.16942274e-03,
       -1.36887465e-04, -1.97731354e-03, 5.85810421e-03, 5.09070745e-03,
       1.27424870e-03, -1.38973771e-03, 1.98379043e-03, -1.23227182e-05,
       4.15576017e-03, 1.59990252e-03, -4.05122899e-03, 2.01584538e-03,
       3.43971723e-03, -6.99887634e-04, -3.78673826e-03, -1.54584867e-03,
       2.39561684e-03, 6.03243429e-03, 4.88082925e-03, -1.05440522e-04,
       4.51837294e-03, 6.91742217e-03, 4.73917415e-03, -1.72695424e-03,
       1.73403043e-03, -3.64473485e-03, -5.70849609e-03, -2.74624792e-03,
       2.21614330e-03, 4.09235293e-03, 7.86714442e-03, 1.95060577e-03,
       -8.28452595e-03, -2.54607853e-03, -5.28367190e-03,
       -7.48708472e-03, -2.15176074e-03, -3.09990719e-03, 1.71957037e-03,
       5.59891993e-03, 4.41171869e-04, -5.62694715e-03, -3.60944564e-03,
       1.22698676e-03, 7.65494630e-03, 5.60813257e-03, -1.12675480e-03,
       -4.30693058e-03, 2.22324790e-03, 1.81972119e-03, -2.57198489e-03,
       -7.58501352e-04, 2.84194900e-03, 4.95859748e-03, 5.51374070e-03,
       5.67610841e-03, 3.90964793e-03, 7.23794661e-03, 1.44657516e-03,
       -4.28951578e-03, -1.91966689e-03, -2.65140715e-03,
       -2.26087286e-03, -2.91598984e-03, 2.70287786e-03, -6.46013301e-03,
       -4.48832405e-04, 1.47953804e-03, 6.48145378e-03, 1.47427164e-03,
       -1.64913363e-03, -4.19361563e-03, 4.26809769e-03, -4.66144597e-03,
       -4.20428393e-03, 2.20353552e-03, 1.84021657e-03, -2.30871327e-03,
       4.81300405e-04, 1.89426157e-03, 2.13110168e-03, 1.50889077e-03,
       -8.01312551e-03, 2.12246363e-04, 1.94021745e-03, 7.25788856e-03,
       3.86445574e-03, -5.25893702e-04, -1.77563459e-03, 1.57069322e-03,
       2.08026171e-03, -5.24343923e-03, -8.91186669e-03, -3.53670982e-03,
       2.20260187e-03, 7.95778912e-03, 4.92332550e-03, 1.15200598e-03,
       -2.25574267e-03, 1.95944798e-04, -6.41399948e-03, -1.06589254e-02,
       9.74770111e-04, 4.79692128e-03, 6.05649268e-03, 3.22472863e-03,
       2.76643364e-03, 2.69408175e-03, 4.42680344e-03, -6.34081615e-03,
       -4.09160135e-03, 8.64444475e-04, 6.90340949e-03, 6.55184174e-03,
       -3.06437112e-04, -1.52957125e-03, 3.67355044e-03, 5.63100213e-03,
       -7.09093316e-03, -3.14036291e-03, 5.15050720e-04, 5.14606945e-03,
       2.61120265e-03, 3.83233069e-03, 5.17310156e-03, 4.96041263e-03,
       -8.90796655e-04, -3.51432385e-03, -8.97896849e-03, 4.78250254e-03,
       8.79501645e-03, -4.40068361e-05, 5.85334201e-04, 2.61457730e-03,
       2.39364686e-03, 7.53973937e-03, 3.58673788e-05, -2.60165636e-03,
       3.62142571e-03, 7.87634868e-03, 6.02924079e-03, 3.32198758e-03,
       6.39097253e-03, 5.11758868e-03, 6.39169570e-03, -1.22683523e-02,
       -3.65919340e-03, -5.23929593e-05, 6.91928575e-03, 7.04133743e-03,
       1.84777053e-03, 1.84322672e-03, 3.17461905e-03, -5.90439280e-03,
       -1.26607390e-02, -1.56533683e-03, 5.28338831e-03, 5.78108057e-03,
       1.24206198e-02, 1.02471223e-03, -1.71971181e-03, -3.00509098e-04,
       -1.18327569e-02, 1.97478032e-04, 2.16401624e-03, 1.26682292e-03,
       7.23126624e-03, 9.82701499e-03, 2.29255483e-03, 8.54697486e-04,
       7.13426713e-03, -5.96701226e-04, 2.87246599e-04, 1.08876601e-02,
       8.69281311e-03, 7.36741303e-03, 8.86485726e-03, 3.45754903e-03,
       1.62091790e-04, 4.47592605e-03, -3.78628541e-03, -9.37563833e-03,
       -7.03922473e-04, 5.31896343e-03, 5.39181242e-03, 6.55506458e-03,
       -4.90192615e-04, -2.71865423e-03, 4.76684450e-04, -1.02251777e-02,
       -1.02633294e-02, 1.44166662e-03, 8.06969590e-03, 7.47643365e-03,
       -1.72067841e-03, -1.59690646e-03, -3.50186741e-03, 6.08795730e-04,
       -1.07843336e-02, 2.02046148e-03, 5.62628824e-03, 3.29934363e-03,
       1.63631595e-03, 4.85010678e-03, 4.72348137e-03, 5.83782885e-03,
       6.74244948e-03, 1.01717468e-03, -1.40966615e-03, 4.33200225e-03,
       2.57068616e-03, 1.47574639e-03, -5.62233618e-05, 4.85217170e-04,
       3.17333662e-03, 6.32408075e-03, 1.82522298e-03, -8.57471209e-03,
       3.88903311e-03, 3.84596456e-03, 3.45611176e-03, 1.84361008e-03,
       2.07745834e-04, 2.62324675e-03, 3.56341596e-03, -7.34402379e-03,
       -9.88114509e-04, 2.56614783e-03, -2.90590135e-04, 2.97617912e-03,
       4.62599797e-03, 6.67428179e-03, 1.66237599e-03, -3.22183035e-03,
       -8.84087640e-04, -6.22109743e-03, 7.29898456e-04, -9.56600183e-04,
       3.13906162e-03, 5.22513641e-03, 6.94637187e-04, 2.89987819e-03,
       3.57318623e-03, 2.06672805e-04, -3.33438371e-03, -2.71776062e-03,
       -3.49779241e-03, 4.28325217e-03, 3.40984017e-03, 3.50231607e-03,
       7.93418294e-05, -8.41691566e-04, 8.81141284e-04, 7.45372789e-04,
       2.12515835e-04, 8.55455524e-04, 6.48128625e-04, 1.40815706e-03,
       5.25702350e-03, 2.47840566e-04, -6.44882457e-05, 3.99889098e-03,
       1.97706535e-03, -2.90702004e-03, -5.47041930e-03, -2.69309129e-03,
       -2.26726523e-03, 5.96958307e-05, -9.29601141e-04, -2.12434633e-03,
       1.69615087e-03, 4.53722570e-03, -2.20640306e-03, -5.50050847e-03,
       9.49688139e-04, -5.68065001e-03, 3.57907801e-03, 1.79454382e-03,
       6.08808361e-04, 7.22110970e-03, 1.18041225e-02, -3.11592408e-03,
       -7.79584376e-03, -2.51038140e-03, -8.31367448e-03, 2.29644211e-04,
       4.14915761e-04, -1.22756965e-03, 1.60816554e-02, 2.25965818e-03,
       3.20339482e-03, -4.45601624e-03, -3.30851623e-03, 5.74083126e-04,
       2.77227489e-03, 3.43126082e-03, -1.10667534e-04, -2.56047142e-03,
       -1.53200200e-03, -1.53868645e-03, -1.67615607e-03,
       -2.13320670e-03, 3.28592840e-03, 1.19633239e-03, 9.88546017e-05,
       -3.28531678e-05, -9.49221256e-04, 7.18481746e-03, -5.91219810e-04,
       -5.19099366e-03, -8.71493539e-04, 1.89606508e-03, 1.71661715e-03,
       1.42613810e-03, 2.49665510e-03, 1.22825298e-02, -3.98081582e-04,
       -9.09143686e-03, -2.88111460e-03, 1.54166948e-04, 2.00913008e-03,
       5.95686072e-03, 5.67307137e-03, 5.35680540e-03, 1.02749176e-03,
       5.75364986e-03, 2.66185729e-03, 3.41599458e-03, 3.88951646e-03,
       2.85629905e-03, 1.18054240e-03, -2.17451877e-03, -1.43718836e-03,
       3.91724613e-03, 5.02299611e-03, 4.74127382e-03, 2.58366694e-03,
       3.75128258e-03, 2.83542252e-03, -1.44816109e-03, -3.12041026e-03,
       -8.39807838e-03, 2.58228951e-03, 5.92353614e-03, -5.73218009e-03,
       -6.73651113e-04, 1.44334300e-03, 3.17088654e-03, 9.63287055e-03,
       7.06535811e-03, 6.48436882e-03, 6.89000962e-03, 6.17164606e-03,
       2.10359110e-03, 3.24244262e-04, 7.78802263e-04, 7.39609997e-04,
       5.22197224e-03, 4.51600971e-03, 1.70170481e-03, 6.58614887e-03,
       2.29397486e-03, 4.80805244e-03, 1.72306877e-03, 1.05849211e-03,
       1.26435841e-03, 3.41822789e-03, 3.85275902e-03, -3.04507674e-03,
       8.31053985e-05, 7.49652274e-03, 7.99745228e-03, 6.11112732e-03,
       2.31548492e-03, -4.32194024e-03, 5.50427334e-03, -1.01036509e-03,
       -5.38082374e-03, -1.27047487e-03, 4.54344554e-03, 3.31991795e-03,
       2.79291137e-03, 1.91931869e-03, -2.14558188e-03, 3.98321357e-03,
       5.78521658e-03, 8.57270323e-04, 4.21452476e-03, 8.05169810e-03,
       5.98834408e-03, 4.06064698e-03, 3.55839822e-03, -1.70787622e-03,
       6.44210400e-03, 2.32354528e-03, -2.95855547e-03, -7.56804220e-05,
       7.49003899e-04, 3.08886915e-03, 6.74671354e-03, 1.83707802e-03,
       -3.36486986e-03, 4.59576258e-03, -1.07582111e-03, -3.05062137e-03,
       -4.82129864e-03, 7.79815775e-04, 2.14935420e-03, 9.55706183e-03,
       5.16609102e-03, -2.60459632e-03, 7.67389685e-03, 6.13284064e-03,
       4.73685144e-03, -4.11953661e-04, 5.08762617e-03, 2.89180316e-03,
       1.40491722e-03, 2.07730546e-03, -3.91364360e-04, 4.64959163e-03,
       2.98933708e-03, -5.44057414e-03, -2.08839844e-03, 3.04581074e-04,
       4.54266602e-03, 1.03359241e-02, 7.74635468e-03, -3.01657338e-03,
       4.28534951e-03, 4.33006091e-03, -3.79738980e-03, 9.36301483e-04,
       -2.57631531e-03, -2.97948509e-03, 1.37347274e-03, 3.91824311e-03,
       2.99246609e-03, 6.60288287e-03, 6.21182425e-03, 2.68274616e-03,
       -2.31460109e-03, 3.82804574e-04, 2.07946007e-03, -5.51769091e-03,
       4.26120125e-03, 6.37546834e-03, 5.16459532e-03, 4.02062899e-03,
       -4.50641674e-04, 4.70804865e-04, -4.23156330e-03, 1.64503814e-03,
       2.57308409e-03, 6.93269912e-03, -2.21760958e-04, 2.87017971e-03,
       2.54289480e-03, -5.73845906e-03, -6.51772926e-03, -1.86057005e-03,
       2.00799457e-03, -4.84572630e-03, 6.07200898e-03, 4.85259155e-03,
       5.92813548e-03, -6.70369016e-04, -5.92177222e-03, -8.41362029e-03,
       -4.13412880e-03, 5.08411089e-03, -1.17361255e-03, 3.16607743e-03,
       4.83495323e-03, 1.31000602e-03, -1.34425913e-03, -1.36213331e-03,
       -3.16571700e-03, -2.37671006e-03, 4.36601881e-03, 1.56127592e-03,
       4.60581994e-03, 5.92848752e-03, 4.33355104e-03, -4.04312648e-03,
       -2.61695916e-03, -6.78938720e-03, -2.15824996e-03,
       -1.98643329e-03, -3.84346768e-03, 2.63527222e-03, 6.55053928e-03,
       6.64646318e-03, -2.63139815e-03, -3.41835013e-03, -5.62344119e-03,
       -3.82139557e-03, -2.16512708e-03, 5.76024060e-04, 4.87349927e-03,
       7.94250239e-03, 6.40364364e-03, -6.26061577e-03, -8.62109382e-03,
       -1.17139071e-02, -4.08788491e-03, 3.01605603e-03, 7.51320913e-04,
       4.49732831e-03, 3.99081502e-03, 9.05778445e-03, 4.91317874e-03,
       -1.95303443e-03, -8.79006181e-03, -1.36946104e-02,
       -4.66743193e-04, -3.11914505e-03, 1.84886763e-03, 3.77538661e-03,
       1.14272265e-02, 8.65243748e-03, 1.69412268e-03, -1.16774319e-02,
       -4.49801469e-03, -2.98627092e-05, 1.67309074e-03, 4.21296665e-03,
       1.44977227e-03, 1.44755130e-03, -7.98415684e-04, -9.35900584e-03,
       -1.20097948e-02, -1.03444485e-02, -2.78669479e-03,
       -1.81626901e-03, 1.01946411e-03, -9.25183762e-04, 7.54246162e-03,
       3.03506129e-03, -8.43552593e-03, -1.49522210e-02, -9.77392960e-03,
       6.87775435e-04, -1.10041292e-03, 1.13682705e-03, -3.35716922e-03,
       1.05423592e-02, 1.09459748e-02, 2.38372874e-03, -7.61159323e-03,
       -1.25142084e-02, 1.72634178e-03, -2.90162233e-03, 3.16996244e-03,
       -9.09360009e-04, 1.45590696e-02, 9.66797676e-03, 8.49009841e-04,
       -1.01830894e-02, -1.72922891e-02, -2.19112705e-03,
       -1.24426873e-03, 2.69710738e-03, -2.25309050e-03, 9.80768632e-03,
       3.08807893e-03, 5.27915719e-04, -8.75250995e-03, -1.51715577e-02,
       -2.97748600e-03, 6.47278910e-04, 6.75452920e-03, 9.33029340e-04,
       9.76439565e-03, 4.90548834e-03, 3.77874076e-03, -4.44390532e-03,
       -8.88161361e-03, 2.04963679e-03, -4.41434933e-03, 2.31289631e-03,
       -2.71665375e-03, 8.97676498e-03, 8.71495157e-03, 5.31707099e-03,
       -4.39781556e-03, -1.16375173e-02, 1.43553084e-03, 1.55675423e-03,
       6.65239245e-03, -8.55732523e-03, 5.53361000e-03, 3.77177424e-03,
       5.71074756e-03, -1.45839795e-03, -9.32240952e-03, -2.65722163e-03,
       -2.10736645e-03, 7.18752388e-03, 3.26706306e-03, 9.09848511e-03,
       7.24489102e-03, 7.27449032e-03, -4.41153115e-03, -4.83578723e-03,
       -1.75164221e-03, -3.41502321e-03, 2.92918459e-03, -7.00522400e-03,
       7.11206021e-03, 6.87742373e-03, 6.23532292e-03, -4.71112813e-04,
       -7.17432611e-03, 2.12157058e-04, 1.18428352e-03, 7.50223990e-04,
       -7.94148445e-03, 3.17436573e-03, 3.31471488e-03, 8.10927432e-03,
       1.23384129e-03, -4.61024232e-03, -5.15552936e-03, -6.13491982e-03,
       -5.72324323e-04, -6.79330481e-03, 2.70653004e-03, 1.04769412e-03,
       -6.80240337e-04, -5.63477457e-04, -4.98835603e-03, 2.58225529e-03,
       4.73129185e-04, 3.47985351e-03, -8.00414383e-03, 6.53706491e-03,
       6.07474986e-03, 9.26763657e-03, 6.73987379e-04, -9.40198544e-03,
       -4.93247714e-03, -5.99560980e-03, 4.10579750e-03, -3.21634230e-03,
       4.81244456e-03, 7.29839411e-03, 8.02643783e-03, 5.08291589e-04,
       -5.74815972e-03, -7.14201434e-03, -5.22886030e-03, 7.62108888e-04,
       -8.06706958e-03, 3.83229321e-03, 1.92207727e-03, -1.84229203e-03,
       -1.05416682e-03, 1.30987624e-04, -1.63276971e-03, -4.60756151e-03,
       -3.46950867e-04, -4.45133587e-03, 1.56872254e-03, 3.41375358e-03,
       1.37994043e-03, -4.75404202e-04, -3.32305930e-03, -9.13782138e-03,
       -7.87025224e-03, 5.10936603e-03, -2.91461218e-03, 2.62028468e-03,
       8.02337658e-03, 7.60742696e-03, 8.85960553e-03, 9.47900675e-03,
       -3.02302931e-03, 1.24943128e-03, 5.57637308e-03, 9.09051101e-04,
       -6.59558573e-04, 2.32581841e-03, 4.77782683e-03, 1.06917722e-02,
       4.15184681e-04, 5.33041032e-03, 9.44942236e-03, 6.53143832e-03,
       3.25541710e-03, -1.97309698e-03, -4.68110107e-03, -6.92781573e-03,
       -3.95027176e-03, 2.35720072e-03, 6.11522701e-03, 7.36282347e-03,
       4.88132052e-03, -2.36877677e-04, -2.31764116e-03, -4.44647018e-03,
       -7.52497138e-03, -2.67709163e-03, -6.00827951e-03, 3.61774303e-03,
       1.21271862e-02, 1.03641488e-02, 3.26603977e-03, -3.36842798e-03,
       -7.00707221e-03, -8.37106165e-03, -1.03262877e-02, 2.74916110e-03,
       -1.44566031e-04, 2.98166205e-03, 8.54145177e-03, 4.65481263e-03,
       -4.98193689e-03, -6.03593700e-03, -1.01345088e-02,
       -2.41438067e-03, 6.13774685e-03, -1.42016122e-03, 2.15903064e-03,
       -1.78853676e-04, -5.10317506e-04, 1.25450222e-03, -1.07941928e-03,
       -6.04917342e-03, -1.68865419e-03, 5.93389338e-03, -1.06876483e-02,
       -6.18624408e-03, -2.28397059e-03, 6.37189904e-03, 5.02260355e-03,
       1.06232974e-03, -6.22907188e-03, 3.32052959e-03, -5.05523407e-04,
       -1.80056016e-03, -9.37438977e-04, 2.38156575e-03, 9.35347693e-04,
       -5.42203721e-04, 3.31869058e-04, -3.03203543e-03, 1.42231211e-03,
       3.40325991e-03, -4.10648715e-03, -1.08211581e-03, 2.00249511e-03,
       5.50153805e-03, 6.16388116e-03, 7.16788927e-03, -3.67748644e-03,
       -1.27377163e-03, -1.26328028e-03, -1.31957047e-02,
       -7.11545488e-03, -1.93656900e-03, 1.78351277e-03, 6.15165383e-03,
       2.16853339e-03, -1.72909664e-03, 2.86389817e-03, -2.32849107e-03,
       -1.15905115e-02, -2.00430816e-03, 8.12134822e-04, -6.43910374e-03,
       4.11830004e-03, 1.76023727e-03, 8.43272137e-04, 6.57524867e-03,
       3.96624760e-04, -5.99053549e-03, 1.76634977e-03, 4.55067633e-03,
       6.01969566e-03, 1.05179679e-02, 5.67344995e-03, -3.89380357e-03,
       -2.13682745e-03, 3.19926906e-03, -3.57513246e-03, -2.63136608e-04,
       6.35755621e-03, 2.99800280e-03, 7.99816102e-03, 2.08652369e-03,
       -9.87224653e-03, -3.85993952e-03, 2.18497543e-03, -7.72812357e-03,
       1.29957986e-03, 4.51791845e-03, -8.91251769e-03, -3.27001355e-04,
       -4.17029671e-03, -2.50928290e-03, 3.53645207e-03, 2.08975864e-03,
       -1.96427736e-03, 4.73201089e-03, 6.81083091e-03, 2.67256866e-03,
       -2.76253396e-03, -8.43961071e-03, -4.08862997e-03, 1.97620341e-03,
       4.77600796e-03, 2.15694730e-04, 2.29760655e-03, 6.14613853e-03,
       1.67672406e-03, 3.28928442e-03, -2.54098210e-03, -1.35299563e-02,
       -4.81536100e-03, -7.24932528e-04, 2.29520188e-03, 4.49093850e-03,
       1.00313798e-02, 1.04691666e-02, 4.43568826e-03, -5.65066189e-03,
       -6.10058988e-03, -4.31106659e-03, 1.74857082e-03, 2.36848020e-03,
       -3.53379117e-04, 4.00237180e-03, 3.72357131e-03, -8.09774501e-04,
       -7.23628700e-03, 2.96642305e-03, 4.55427333e-04, 2.42197148e-05,
       5.20375557e-03, 2.56767962e-03, 4.98232991e-03, 3.27392551e-03,
       2.00844184e-03, -3.29431915e-03, -3.19214584e-03, -8.78946483e-03,
       -3.40037700e-03, 2.10415892e-04, -3.14250542e-03, 2.78888876e-03,
       6.82457117e-03, 5.94512885e-03, -5.85791934e-03, -5.50451106e-04,
       -9.58366902e-04, -5.93002280e-03, -4.12651850e-03,
       -3.53029027e-04, 4.38316446e-03, 4.22967272e-03, 4.03061789e-03,
       -2.76491325e-03, -4.14941693e-03, -3.36477743e-03, 3.71883740e-03,
       4.37404355e-03, 3.42084863e-03, 2.54592509e-03, -2.31456640e-03,
       5.19224536e-03, 4.96345572e-03, -2.44124304e-03, -1.31897279e-03,
       2.64180358e-03, 1.05021871e-03, 7.25140271e-04, -1.04536163e-03,
       -1.00603066e-02, -5.65637881e-03, 1.69359567e-03, 1.29524141e-03,
       5.97561803e-03, -8.87118513e-04, -3.54781351e-03, 1.77600328e-03,
       4.86252457e-03, -2.66999006e-03, 4.29933984e-03, 2.42563430e-03,
       -2.44539115e-03, -1.50767528e-03, 5.44665800e-03, -2.85736169e-03,
       -1.16270198e-03, 5.99201652e-04, -1.40630901e-02, -2.07425165e-03,
       1.57156470e-03, 7.84025033e-05, 2.84132152e-03, -3.27590620e-04,
       -1.10666326e-03, -2.06041872e-03, 1.45246286e-03, -3.25571583e-03,
       -4.29049646e-03, -2.67969386e-04, 2.35614087e-03, 4.46573552e-03,
       -1.67940708e-03, -5.21407975e-03, -2.96453969e-03, 5.68650151e-03,
       -1.92240544e-03, 2.17711506e-03, -4.21937974e-03, -4.68117325e-03,
       -4.10658028e-03, -4.26249113e-04, -3.55437025e-03, 1.35401438e-03,
       4.78747627e-03, -7.06014223e-03, 9.12640011e-04, 7.34616469e-06,
       3.41777853e-03, 6.55121123e-03, -2.08491669e-03, -9.45314951e-03,
       2.63771544e-05, 3.39839002e-03, -8.02137889e-03, 2.55148928e-03,
       -6.72266586e-03, -1.98827009e-03, 6.90054009e-03, 1.13709690e-02,
       -4.71972999e-05, -1.27947284e-03, 1.41442707e-03, -1.04537373e-02,
       1.46775530e-03, -1.88222178e-03, -3.89036513e-03, 6.21792767e-03,
       1.20732766e-02, -4.66153538e-03, -7.42985960e-03, -3.06942570e-03,
       -1.37432152e-02, -3.49580264e-03, 8.95415200e-04, -2.32872833e-03,
       1.66157223e-02, 9.60485730e-03, -4.84873587e-03, -1.90333335e-03,
       1.88045157e-03, -1.04788067e-02, 5.30712598e-04, -4.20468254e-03,
       -1.09526538e-03, 9.41147562e-03, 7.65183335e-03, -1.03433477e-02,
       -6.32670987e-03, -1.37898678e-04, -1.33641185e-02,
       -5.16850874e-03, -1.28980912e-03, 3.07813194e-03, 1.43223684e-02,
       6.94877049e-03, -5.09828981e-03, -6.41908310e-03, -1.38958299e-03,
       -2.82204873e-03, 7.05338258e-04, -8.09674268e-04, 3.27597256e-04,
       1.23782670e-02, 3.48254835e-04, -7.37515930e-03, -4.15704912e-03,
       -5.56185469e-03, -4.32400499e-03, 3.20194755e-03, 1.89168204e-03,
       3.47884768e-03, 5.02727134e-03, 3.02610290e-03, -7.58349616e-03,
       -6.05136342e-03, -5.43044647e-04, -4.75361198e-03, 7.37781113e-04,
       7.75569759e-04, 3.35206394e-03, 1.37463044e-02, -3.51894624e-03,
       -7.04042707e-03, -5.42384479e-03, -6.15804037e-03,
       -2.87753646e-03, 3.24093737e-04, 3.96076823e-03, 4.51665558e-03,
       9.39241424e-03, 6.00951083e-04, -3.87902698e-03, 1.52077165e-03,
       -1.13897072e-03, -3.88130749e-04, 4.35937010e-03, 5.00748353e-03,
       3.30939167e-03, 4.43201466e-03, 4.61954717e-03, -1.56384325e-04,
       7.16160284e-04, 2.41944450e-03, -1.95462344e-04, -6.88165310e-04,
       1.52205094e-03, 5.00595709e-03, 7.19877938e-03, -3.91885033e-03,
       -1.24926842e-03, -5.69883152e-04, -1.84890581e-03, 4.85173753e-03,
       2.12664530e-03, 1.96562032e-04, 1.22094341e-03, 3.88556393e-03,
       -3.16758233e-04, 3.48265283e-03, 4.15071519e-03, 1.33793859e-03,
       -5.29445999e-04, -2.63568247e-03, -1.21408736e-03, 6.36449622e-05,
       6.03411021e-03, 3.60169797e-03, 3.86519678e-04, 2.89591006e-03,
       3.88924428e-03, -5.08492813e-03, -7.75246241e-04, -6.75659452e-04,
       -2.24283943e-03, 4.17713588e-03, 6.55182032e-03, 4.29106038e-03,
       -3.18303850e-04, 3.80620128e-03, -2.56621791e-03, 1.98018788e-05,
       -4.30494687e-03, -7.59852771e-03, -2.50959210e-03, 6.39540283e-03,
       7.44715566e-03, 5.51596563e-03, 5.79205761e-03, -5.07151755e-03,
       -4.65779845e-03, -1.16915640e-03, -1.94541109e-03, 4.43258462e-03,
       1.15623567e-02, 8.78389552e-03, 1.48454786e-03, 8.19796044e-03,
       -2.01783655e-03, -4.06129099e-03, -3.75032774e-03,
       -5.16174501e-03, 5.05672442e-03, 6.80291094e-03, 4.59244009e-03,
       -3.66960466e-03, -1.09174638e-03, -1.90025521e-03, 1.41490961e-03,
       -2.05929973e-03, -8.90220609e-03, -5.94545063e-03, 5.41504845e-03,
       5.47481887e-03, 3.68101243e-03, 4.43594623e-03, -4.95204143e-03,
       -3.77010991e-04, 7.87483645e-04, -6.40068948e-03, -3.24152829e-03,
       9.04662162e-03, 4.17584274e-03, -4.81817406e-03, -2.34879248e-04,
       3.26030119e-03, -5.34066465e-04, -2.46678246e-03, -4.16891882e-03,
       1.06594744e-05, 1.30277080e-02, 1.02798026e-02, 6.93295675e-04,
       9.47862805e-04, -8.35686829e-03, -3.32119013e-03, -3.03730578e-03,
       -6.77064899e-03, -2.63709412e-03, 1.72687380e-03, 4.46097879e-03,
       1.07393390e-03, 7.86390714e-03, -3.11256945e-03, 3.47100431e-04,
       1.34803588e-03, -5.14873909e-03, 8.04605021e-04, -1.47474648e-05,
       2.32406822e-03, -2.60480493e-03, 5.04258834e-03, -1.12176617e-03,
       3.37314256e-03, 5.71889454e-04, -2.02765618e-03, -3.20711965e-03,
       7.84055237e-03, 1.09229777e-02, 1.91540143e-03, 4.76430636e-03,
       -2.35075806e-03, -5.50982449e-03, -3.80822760e-03,
       -3.17959697e-03, 4.32294502e-04, 1.30248710e-03, 7.92993139e-03,
       9.19508806e-04, 5.71863493e-03, -1.71546976e-03, -5.26514882e-03,
       -6.57889154e-03, -2.56480346e-03, 1.32740580e-03, -3.98093695e-03,
       -2.58305157e-03, -1.50377979e-03, 1.50648109e-03, 4.19253483e-03,
       4.39924235e-03, 3.32329189e-03, 2.14907550e-03, -3.73413810e-03,
       -2.88117398e-03, -2.24619056e-03, -4.24096623e-04, 2.71593616e-03,
       3.74466367e-03, 3.75531451e-03, 6.96243369e-04, -8.48624331e-05,
       -9.45848972e-03, -3.14907357e-03, 3.78228957e-03, 2.81954138e-03,
       3.04030767e-03, 4.67916369e-04, -2.62030098e-03, 1.58716843e-03,
       2.16509122e-03, -1.61621859e-03, -4.28056996e-03, -2.44703493e-03,
       -6.56305393e-03, -2.15122662e-03, -1.57759257e-03, 4.12230247e-06,
       4.38477611e-03, 1.79477257e-03, -3.02877068e-03, 4.51095169e-03,
       6.81052567e-04, 3.98176257e-03, 3.18474718e-03, -5.72043064e-05,
       -7.01867393e-04, -1.45013572e-03, -5.25363674e-03,
       -6.80795358e-03, 1.11825985e-03, -1.59198302e-03, 2.69567384e-03,
       1.94209511e-03, -1.59681449e-03, 4.46831994e-03, 1.76048477e-03,
       -3.39364703e-03, -6.99577667e-03, 3.07733612e-03, 1.26162311e-03,
       -2.06167391e-03, 4.13431781e-06, -4.42175055e-03, -5.51322242e-04,
       1.69487356e-03, 5.70831471e-04, -3.75438738e-03, 8.44967028e-04,
       -5.47785964e-03, -3.28684552e-03, 2.09435006e-03, -2.30551325e-03,
       1.42894324e-03, 3.79588571e-03, 2.37598945e-03, -2.88108690e-03,
       -8.58035590e-03, -3.64268152e-03, -1.66984764e-03, 2.40128674e-03,
       -2.02051294e-03, 3.98813467e-03, 1.17398018e-03, -9.05733032e-04,
       -6.24464080e-03, -8.83558765e-03, -5.60583081e-03, 2.04835873e-04,
       5.41125424e-03, 5.61382854e-03, 4.96924436e-03, 3.22144525e-03,
       2.88799754e-03, -3.49373696e-03, -3.96723952e-03, -6.02175156e-03,
       -1.05429546e-03, 4.61361185e-03, -5.55767538e-03, 1.48673984e-03,
       3.78236244e-03, 1.30626198e-03, -4.73325886e-03, -7.62582850e-03,
       -6.45561051e-03, -2.53520510e-03, 8.40699859e-03, 5.71322511e-04,
       5.67174098e-03, 5.36077935e-03, 2.56838347e-03, -4.09574481e-03,
       -7.89018907e-03, -7.14042597e-03, -2.87579605e-03, 4.74490877e-03,
       1.77808455e-03, 9.28735919e-03, 6.81121973e-03, 3.24705685e-03,
       -6.52470300e-03, -2.67339195e-03, -5.54742385e-03,
       -3.00841453e-03, 4.15351987e-03, -9.70685016e-03, 6.79447362e-03,
       4.31565288e-03, -1.05566718e-03, -3.25142057e-03, -1.12940939e-02,
       -5.77061949e-03, -3.52312136e-03, 7.26515986e-03, -8.00432026e-05,
       9.86324623e-03, 9.11065284e-03, -1.43056072e-03, -6.14380185e-03,
       -2.70606927e-03, -2.62387097e-03, 1.82000746e-03, 8.89413897e-03,
       -1.63240149e-03, 3.36728385e-03, 2.90684914e-03, -5.23778843e-03,
       -4.21303557e-03, -6.74306555e-03, -2.69748620e-03, 3.55733838e-03,
       5.67326415e-03, -1.30767180e-02, 1.75742409e-03, 2.77975202e-03,
       2.50091567e-03, -5.14533278e-03, -3.38284462e-03, -4.88461182e-03,
       -4.44600964e-03, 3.34267551e-03, -1.17045529e-02, 2.73486157e-03,
       3.91012151e-03, 9.43493377e-03, 4.69161617e-03, -1.75754155e-03,
       -7.90690305e-04, 5.47631271e-03, 9.06161964e-03, -3.24077858e-03,
       -3.51266062e-04, -4.49723273e-04, 3.73959250e-04, -1.57576194e-03,
       -1.59000873e-03, -1.50910881e-03, 1.00956101e-03, 1.92838488e-03,
       -3.90042807e-03, -8.32817052e-04, 4.14189417e-03, 6.38680765e-03,
       3.60561046e-03, -5.91497868e-03, -6.35248609e-03, -8.10798630e-03,
       2.98957457e-03, -1.29787158e-02, 3.79468012e-03, 3.27745290e-03,
       1.07141454e-02, 7.19036069e-03, 2.02734279e-03, -8.89932550e-03,
       -3.15364450e-03, 3.14269075e-03, -1.99883408e-03, 3.37443477e-03,
       -7.09743530e-04, 6.70116115e-03, 6.14800071e-03, -5.30072534e-03,
       -2.02409131e-03, -1.50093040e-03, 1.19412004e-03, -3.83164315e-03,
       5.24771633e-03, 6.51039928e-03, 8.36814847e-03, 3.32664372e-03,
       -3.77384014e-03, -5.52969705e-03, -2.54799984e-03, 7.75816792e-04,
       -4.99882689e-03, 4.97423811e-03, 4.17933939e-03, 3.88720119e-03,
       1.89223781e-03, -3.16585810e-03, -1.86630967e-03, 7.25805433e-03,
       3.43521917e-03, 3.62421590e-04, -6.71709829e-04, -5.24883578e-03,
       -5.50839445e-03, -4.94670961e-03, -1.53637875e-03,
       -1.69187167e-03, 1.87264453e-03, 1.00083265e-03, -1.11852819e-03,
       -4.12713597e-03, -6.11609826e-03, -6.47959625e-03, 2.62265257e-03,
       -2.66183401e-03, -6.27656467e-03, -1.14809908e-03, 4.72948374e-03,
       5.31695643e-03, -2.13581938e-04, -1.70940603e-03, -1.56546640e-03,
       4.41260403e-03, 2.51033081e-04, -1.66782667e-03, 3.41954129e-03,
       3.87770543e-03, -1.44746294e-03, -1.82008807e-04, -1.65734009e-03,
       2.13049678e-03, 1.15087656e-02, -2.58270255e-03, -1.85646873e-03,
       -2.61438079e-04, 7.24260346e-04, -9.71318048e-04, -6.70660473e-03,
       -4.19377116e-03, -4.76801815e-03, -1.77500991e-03,
       -2.97407794e-04, 3.50982707e-04, 3.79246101e-03, 7.84808653e-04,
       2.34407000e-03, -1.99184171e-03, 8.97915859e-04, -2.69848946e-03,
       -5.14914840e-03, 1.11719035e-03, 2.16290282e-04, 3.92153952e-03,
       4.88040736e-03, -3.43201100e-03, -5.61323157e-03, -7.03750504e-03,
       3.02866421e-04, 6.28503459e-03, -4.36189491e-03, 4.25471691e-03,
       7.86952674e-03, 8.01105984e-03, 1.39619655e-03, -2.28473288e-03,
       -4.25659260e-03, -1.70133018e-04, -3.52880778e-03,
       -2.53795460e-03, -7.89620040e-04, 3.72609776e-03, 3.94418556e-03,
       3.91503144e-03, 7.31883617e-03, -1.30763568e-03, -4.97558340e-03,
       -6.47520414e-03, 2.22744793e-03, 2.35502521e-04, 1.26740127e-03,
       2.77493079e-03, -1.35084160e-03, 7.01216189e-03, -6.26867928e-04,
       -1.00267036e-02, -8.92798137e-03, -1.30480770e-02,
       -1.14577543e-03, 4.55343770e-03, 7.85978697e-03, 6.35901140e-03,
       4.25847294e-03, 1.68126993e-04, -9.87111707e-04, -7.15343840e-03,
       -6.73042471e-03, -1.12949999e-03, 1.65873801e-03, 5.62733831e-03,
       -4.28548269e-03, 1.52616145e-03, -4.07812302e-04, -5.61516779e-03,
       -1.07920449e-02, 7.80594721e-03, -4.18036478e-04, 3.35804536e-03,
       5.41283935e-03, 3.61734442e-03, 6.76619448e-03, 2.21464969e-03,
       -7.14083016e-03, -2.32608104e-03, -5.92711614e-03,
       -1.01999776e-03, 2.69840402e-03, 5.70804486e-03, 1.19392332e-02,
       6.38316106e-03, 1.71754538e-04, -8.17646272e-03, -3.67672578e-03,
       -5.66960918e-03, -2.33590370e-03, 2.69728410e-03, 5.87778771e-03,
       9.10229224e-04, 3.76635022e-03, 4.49701166e-03, -4.82968194e-03,
       -9.92745627e-03, -1.18803224e-02, -2.22226791e-03, 5.25373500e-04,
       3.44614475e-03, 8.06855783e-03, 7.55044539e-03, 1.53487921e-03,
       -1.17320437e-02, -1.42859016e-02, -1.32591289e-03, 1.37695388e-04,
       1.04368397e-03, 4.35699662e-03, 1.31778400e-02, 1.03779007e-02,
       2.27377820e-03, -1.45001337e-03, 2.96279066e-03, -3.50053364e-04,
       -1.56037824e-03, 1.90646853e-03, 3.00265430e-03, 4.79835737e-03,
       6.39458699e-03, 3.82035854e-03, -9.29406204e-04, 2.02406175e-03,
       -6.33076252e-03, -2.29521841e-03, -7.17625080e-05, 4.65393532e-03,
       6.55919593e-03, 6.86961599e-03, 2.37867213e-03, -7.49146892e-03,
       -8.33880343e-03, 8.00908951e-04, -7.85271730e-03, -3.54221486e-03,
       7.08730484e-04, -4.19205707e-03, 4.43055527e-03, 4.22321056e-04,
       -5.56237530e-03, -3.54441046e-03, 3.20408749e-03, -1.89732900e-03,
       1.14267331e-03, 3.51226493e-03, -4.95077018e-03, 3.23330634e-03,
       5.76476566e-03, -2.22222734e-04, 3.87502811e-03, 5.58199035e-03,
       -3.01222899e-03, 3.95968200e-05, 2.29129801e-03, -1.05289994e-02,
       7.51272368e-04, 6.77602645e-03, 1.95189693e-03, 1.88116683e-03,
       3.64762777e-03, -1.82613160e-03, 5.91972959e-04, 1.49127853e-03,
       -1.03615541e-02, 6.81204023e-04, 3.82066937e-04, -4.51225415e-03,
       -6.04509609e-04, 2.84396741e-03, -3.28944111e-03, 1.32880965e-03,
       2.38820142e-03, -8.22431035e-03, -8.08996556e-04, 2.88406550e-03,
       -3.57167539e-03, -2.61409464e-03, 3.06291855e-03, -3.07350187e-03,
       2.14643870e-03, 5.64695150e-03, -8.26284476e-03, 6.60338905e-04,
       1.16828969e-03, 2.71226279e-03, 5.57966903e-03, -1.47522171e-03,
       -7.23624136e-03, 1.53082423e-03, 4.68306476e-03, -4.52225376e-03,
       2.29395763e-03, -1.14369637e-03, -2.78242794e-03, 1.13525009e-02,
       2.87822419e-04, -4.14207391e-03, -1.68340257e-03, 2.99419765e-03,
       -8.13717581e-03, -1.05758873e-03, 1.74016936e-03, 1.18739251e-03,
       4.35091642e-04, -5.31873805e-03, -7.22866319e-03, -3.38068791e-03,
       2.55406881e-03, -7.15274224e-03, 3.55465710e-03, 1.12861220e-03,
       -2.56248633e-03, -1.61016907e-03, 4.16464685e-03, -6.66996092e-03,
       1.16697431e-03, 4.37173760e-03, -6.93228794e-03, -2.90035212e-04,
       -3.43942270e-03, -3.99937294e-03, 8.66652466e-03, 8.07681866e-03,
       -6.17005769e-03, 1.86486507e-03, 2.60860613e-03, -1.09590562e-02,
       -3.47272400e-03, -3.82945291e-03, 2.43525719e-03, 1.21531226e-02,
       -8.62393972e-06, -5.02150133e-03, -3.11340229e-03, 3.84720345e-03,
       -4.19321749e-03, 2.56320927e-03, -2.17271410e-03, -4.25200723e-03,
       -3.26978764e-03, 6.62572403e-03, -4.79105423e-04, -5.84094261e-04,
       4.42697154e-03, -6.62383577e-03, -9.85481311e-04, -6.32667169e-03,
       -4.33554378e-04, 5.14318142e-03, 4.54387069e-03, -4.14948072e-03,
       2.51366873e-04, 6.08969072e-04, -5.28778741e-03, -2.07845820e-03,
       -2.55460298e-04, 4.06102091e-03, 8.51467159e-03, -2.27172067e-03,
       -4.54499573e-03, -3.31376586e-03, -3.43477912e-03,
       -1.96372741e-03, -1.57102186e-03, 1.87580520e-03, 2.81234225e-03,
       5.54808648e-03, 5.13853692e-03, 1.21316186e-03, 4.38029971e-03,
       5.79671748e-03, -6.57985627e-04, -1.64871177e-04, -3.31039517e-03,
       -3.82739527e-04, 1.47555897e-03, -2.02724501e-03, -1.87709264e-03,
       -2.21567825e-04, 1.85429258e-03, 4.56939451e-04, 7.98290188e-04,
       -2.53074663e-03, -2.06813286e-03, -1.41418481e-03,
       -6.05288194e-03, -4.49908664e-03, -2.46858690e-03, 8.95900186e-04,
       2.36470997e-03, 3.30630154e-03, -3.06507456e-04, 1.13101024e-03,
       4.63043433e-03, -3.72854620e-03, -1.65666139e-03, 3.54978419e-03,
       3.54522420e-03, -1.67375954e-03, 1.89537101e-03, -3.20532173e-03,
       -6.62748062e-04, 4.31884360e-03, -2.11070804e-03, 2.94808182e-03,
       -6.86565239e-04, 1.86009402e-03, 1.57721667e-03, 1.93073915e-03,
       -1.43164641e-03, 4.40824311e-04, -3.67860403e-03, 5.10697253e-03,
       3.93573847e-03, 1.53199417e-05, 3.66662722e-03, -3.72006849e-04,
       3.87627259e-03, -2.40549634e-05, 1.70975202e-03, -3.76714481e-04,
       1.38888520e-03, 1.29004591e-03, 1.41318585e-03, 4.76436829e-03,
       -6.49078051e-03, -4.03405214e-03, -1.19135599e-03, 1.00928755e-03,
       1.72072626e-03, 7.46424403e-03, 3.26001318e-03, -2.62789545e-04,
       2.30716052e-03, -6.39352622e-03, -3.45952623e-03, -2.46029976e-03,
       -2.30187690e-03, 4.62647341e-03, 4.87003196e-03, -1.89748209e-03,
       -5.99158404e-04, 4.00392804e-03, -1.59171969e-03, 2.40943744e-03,
       4.95717512e-04, 1.81579194e-03, 2.90007587e-03, 1.21568767e-02,
       5.18743601e-03, 3.06740613e-03, 7.40760192e-03, 2.72775721e-03,
       4.34450223e-04, -2.70345178e-03, -1.92907383e-03, 4.57930099e-03,
       3.74391908e-03, 3.16456030e-03, -5.45248576e-03, -6.52284594e-04,
       1.74512446e-03, 3.66888312e-03, 9.54332936e-04, -4.67569847e-03,
       -1.75483013e-03, 6.69679558e-03, 6.82459492e-03, -1.94200431e-03,
       -1.21863221e-03, -2.87966314e-03, 2.10106862e-03, 1.04744067e-04,
       -9.12692305e-03, -6.04456291e-03, 8.99439864e-03, 7.76370196e-03,
       -2.00746860e-03, 2.82808812e-03, 4.67534224e-03, 6.78183092e-03,
       7.84332165e-04, -3.42572783e-03, -1.72676425e-03, -9.17650235e-04,
       9.84132383e-03, -6.18685177e-03, 6.24642382e-07, 3.02118657e-04,
       5.06701041e-03, 5.99379477e-04, -2.25864584e-03, -9.34570003e-03,
       2.83992453e-03, 8.22269637e-03, 2.14823894e-03, 2.99904821e-03,
       -2.89921300e-04, -3.65176355e-03, -5.43804793e-03,
       -7.67210266e-03, -8.04055389e-03, 3.23414244e-03, 7.34210666e-03,
       3.95244127e-03, 5.00309234e-03, -9.92681948e-04, -3.12465988e-03,
       -7.78448163e-03, -4.05245088e-03, -6.30199257e-03, 3.74258118e-04,
       7.36456085e-03, -4.70827287e-03, 1.72603934e-03, 1.21887482e-03,
       6.41049258e-03, 4.52491874e-03, 3.10813164e-04, 6.80925325e-04,
       -5.33044385e-03, 1.74371281e-03, -1.46672782e-03, 5.80849638e-03,
       -1.27370888e-03, 3.76596930e-03, -9.27713263e-05, 1.05001160e-03,
       2.14899099e-03, 4.99498332e-03, 1.06947394e-02, 9.93985962e-03,
       5.92325861e-03, 7.80558737e-04, -2.56746728e-03, -1.86693447e-03,
       -3.80479207e-04, -5.33218309e-03, -2.29064049e-03, 4.23402945e-03,
       2.72755302e-03, 2.36802083e-03, -4.34681773e-03, -1.47299259e-03,
       1.23486400e-03, 2.33515355e-04, -5.61233051e-03, -2.61489884e-03,
       2.73905043e-03, 5.40074240e-03, 6.13951823e-03, 9.06632689e-04,
       2.85316212e-03, 3.40802711e-04, 2.61237519e-03, 1.90577621e-03,
       -4.27895226e-03, 9.64049017e-04, 5.94065012e-03, 6.97090197e-03,
       -2.15669163e-03, -2.19453406e-03, -2.73405662e-04,
       -1.78631875e-04, -2.89272261e-03, -8.75969476e-04, 5.27664879e-03,
       1.80125551e-03, 3.46746971e-03, -4.57717245e-03, 1.99582800e-03,
       2.43308325e-03, 2.22536197e-04, -2.49514007e-03, -2.84705521e-03,
       3.89553781e-04, 1.75654085e-03, 5.92037383e-03, -2.63114250e-03,
       1.90883339e-03, 3.07151908e-03, 3.37324291e-03, 2.88206880e-04,
       -2.73154443e-03, 5.38874744e-03, 6.28137263e-03, 6.92581013e-03,
       -2.09128694e-03, 1.99633348e-03, 3.32216430e-03, 9.00929212e-04,
       -7.30608765e-04, -5.55493683e-03, -3.23124486e-03, 1.93989149e-03,
       3.54384421e-03, -5.11551462e-03, 1.57686532e-03, 5.73902065e-03,
       3.44476243e-03, 3.64811305e-04, -3.23866657e-03, -4.41348366e-03,
       3.92270840e-06, 5.82587998e-03, -7.81483389e-03, 1.69372989e-03,
       2.87121674e-03, -1.83604599e-04, -3.51397181e-03, -3.39900097e-03,
       -4.72769793e-03, 4.60747891e-04, 1.15528842e-02, 2.49966094e-03,
       5.04815439e-03, 8.35617352e-03, -2.13286272e-04, -2.43971401e-04,
       -6.96554640e-03, -9.12656821e-03, -3.25588579e-03, 2.53008306e-03,
       -3.73962149e-03, -1.52050809e-03, 4.04081168e-03, 2.10761139e-03,
       5.52285579e-04, -1.08394166e-03, -8.14656448e-03, -3.68369557e-03,
       1.08769182e-02, 4.69427928e-03, 7.93363340e-03, 8.59553739e-03,
       -1.39272690e-03, -2.45786039e-04, -6.21802500e-03,
       -5.58049325e-03, -4.19089152e-03, 8.91815592e-03, 1.89490360e-03,
       5.39452489e-03, 7.11776270e-03, -9.94973700e-04, -4.31571947e-03,
       6.18184393e-04, -4.85334406e-03, -7.91295839e-04, 1.01120034e-02,
       3.70248174e-03, 2.45234161e-03, 6.22911798e-03, -2.04940239e-04,
       2.87697767e-03, -6.46671234e-03, -4.86801425e-03, -8.71403422e-03,
       5.60793560e-03, 2.22451356e-03, 1.13120144e-02, 3.29195033e-03,
       -3.35655361e-03, -6.54879911e-03, -3.45188379e-03,
       -9.63213667e-03, -6.16078451e-03, 7.18075363e-03, 1.42224052e-03,
       9.59347747e-03, 5.10413200e-03, 2.37209094e-03, -7.99899281e-04,
       2.62940582e-03, 5.64235437e-04, 4.12229309e-03, 9.86965932e-03,
       4.62563848e-03, 1.71473902e-03, 2.31632032e-03, 3.16390139e-03,
       5.70137054e-03, 3.63338785e-03, 2.36200169e-03, 2.31242715e-03,
       2.82249623e-03, -4.17879462e-04, 2.66998261e-03, 3.79208988e-03,
       2.07790546e-03, 6.30116928e-03, -1.54694391e-03, -7.53702782e-03,
       -1.05409767e-03, 6.13460736e-03, 5.70452306e-03, 5.68164652e-03,
       3.49375652e-03, -1.12763388e-04, -6.82073063e-04, -6.51871599e-03,
       -6.61084289e-03, -1.94588472e-04, 1.71341235e-03, 2.14606919e-03,
       4.54641506e-03, -6.38054742e-04, -1.66143209e-03, -4.00803192e-03,
       3.13214422e-03, 6.77324599e-04, 2.92823231e-03, 1.75883272e-03,
       1.70744967e-03, 7.42214266e-03, 7.07578845e-03, 5.63714048e-03,
       7.56290648e-03, -1.79874024e-03, -2.53916788e-03, 1.04526477e-03,
       -2.90681957e-04, -3.10320919e-03, 6.16978807e-03, 7.63816945e-03,
       3.31046130e-03, 2.21007760e-03, -8.25530291e-03, -6.66444190e-03,
       -7.42761011e-04, 3.38780985e-04, -2.12144968e-03, 6.23262906e-03,
       4.25393647e-03, 2.78273155e-03, -3.45374178e-03, -6.64929394e-03,
       -6.64576283e-03, 2.84856331e-04, -6.85273262e-04, -3.20207467e-03,
       7.74238259e-03, 9.17049032e-03, 4.42383578e-03, -5.97250229e-03,
       -6.05084701e-03, -4.37062792e-03, -2.58327555e-03, 2.35911645e-03,
       5.05017466e-04, -1.20306865e-03, -2.68280436e-03, -2.61052558e-03,
       3.74958239e-04, -1.55374233e-03, -1.03948500e-04, 4.20301221e-03,
       6.53988216e-03, -1.30470807e-03, 3.02187237e-03, -5.51824691e-04,
       -3.76512355e-04, 3.04093328e-03, -1.16019079e-03, 3.34466714e-03,
       4.27350809e-04, 1.15422916e-03, 2.11927667e-03, -2.85646250e-03,
       -6.21329714e-03, -6.26749452e-03, -3.39787803e-03, 1.66792679e-03,
       3.85557814e-03, 3.50344181e-03, 3.74731096e-03, -4.03397251e-03,
       6.07903535e-03, -3.74337332e-03, -3.08559625e-03, -5.46738412e-03,
       -1.79651566e-03, -1.51626626e-03, 4.07402590e-03, 6.78513339e-03,
       -2.94632372e-03, -2.59197270e-03, -3.33477627e-03,
       -2.55140383e-03, 6.50295755e-04, -9.57382470e-03, -1.22736802e-03,
       4.71393252e-03, 8.62835813e-03, -3.98018537e-03, -3.28483921e-03,
       -4.14329255e-03, -9.82066034e-04, 4.09279630e-04, -2.82703456e-03,
       -4.72876243e-03, 4.61828755e-03, 5.70021058e-03, -2.30600080e-03,
       3.40845296e-03, -3.45744519e-03, -3.13584111e-03, -4.71965689e-03,
       -5.84140699e-03, -7.37957889e-03, -7.65957637e-04, 8.25043023e-03,
       -4.33489028e-03, -5.32053891e-05, 1.16932800e-03, 4.94680787e-03,
       6.61835133e-04, -1.34806577e-02, -5.83713641e-04, 4.80467966e-03,
       7.21951388e-03, 6.88636967e-04, -2.76660227e-04, 1.34301756e-03,
       1.22705591e-03, 1.31771958e-04, -1.37921227e-02, -3.38889938e-03,
       3.73808341e-03, 5.11916308e-03, -8.83870199e-03, -3.20695038e-03,
       4.09750594e-03, -2.80605722e-03, -4.39559016e-03, -3.07235168e-03,
       -2.69873813e-03, 1.84536807e-03, 5.76019706e-03, -3.52492160e-03,
       2.68897461e-03, 1.37894275e-03, 5.73102618e-03, 1.87660090e-03,
       -6.58088690e-03, 6.80917728e-05, 3.79297137e-03, 8.44584219e-03,
       -7.47721083e-03, 3.86888557e-03, 6.00314420e-03, 8.62488989e-04,
       -5.01881866e-03, -6.84287725e-03, 3.13785812e-03, 7.07194256e-03,
       7.28922617e-03, -4.12667729e-03, 4.32438171e-03, 4.35964577e-03,
       -3.09936516e-03, -7.26988493e-03, -7.32020568e-03, 2.88039027e-03,
       4.53161215e-03, 6.31786417e-03, -1.20772910e-03, 5.92370052e-03,
       -1.88497931e-03, -9.23793949e-03, -1.31904762e-02,
       -6.63931621e-03, 4.92723705e-03, 8.42939690e-03, 8.82011931e-03,
       -5.51101984e-04, 1.41485939e-02, 1.13876592e-02, -1.06748636e-03,
       -9.31374542e-03, -5.18181920e-03, 2.19414127e-03, 4.85915598e-03,
       9.94847249e-03, 3.19484016e-03, 1.20427161e-02, 2.52747349e-03,
       -1.23393477e-03, -7.45971547e-03, -1.35974039e-03, 2.87886919e-03,
       3.46622453e-03, 7.52722891e-03, 6.93696958e-04, 2.50204769e-03,
       -4.76715807e-03, -8.08248948e-03, -9.98208299e-03, 2.34585791e-03,
       3.37805192e-04, 3.90516082e-03, 4.86831646e-03, 1.22435950e-03,
       2.11113994e-03, -5.76699991e-03, -7.86999706e-03, -1.83322630e-03,
       1.30830449e-03, 4.50836355e-03, 7.06714764e-03, 1.00203911e-02,
       6.85168011e-03, 4.58976533e-03, -1.03020726e-03, 7.92780949e-04,
       1.21956505e-03, 5.82351396e-03, 2.58568395e-03, 1.01276180e-02,
       1.02736838e-02, 7.86792114e-03, 1.44707237e-03, -3.92533652e-03,
       -6.61358470e-03, 6.41351659e-03, 2.40415364e-04, 1.12448249e-03,
       3.36781773e-03, 2.62561138e-03, -1.41299958e-03, 1.17435574e-03,
       -4.61791502e-03, -4.67471220e-03, -2.33067619e-03,
       -5.25020703e-04, -2.68756482e-03, 1.26759964e-03, 3.44544044e-03,
       -2.39936984e-03, 2.84672109e-03, -5.82738081e-03, -1.52439962e-03,
       -5.97761828e-04, 5.18608093e-03, 9.39083868e-04, 4.74823359e-03,
       9.43258870e-03, 1.03516830e-02, 6.41059875e-03, 6.28804904e-04,
       -9.62576084e-03, 2.27075559e-03, 4.86790854e-03, -1.22121233e-03,
       8.20355664e-04, 1.02872914e-02, 4.66578966e-03, 6.39398815e-03,
       -5.44614345e-03, -6.30065240e-03, 7.41982949e-05, -4.12241381e-04,
       -1.36971241e-03, 1.34391570e-03, 3.44903348e-03, -1.31423830e-03,
       2.72051012e-03, -2.25426513e-03, 3.08977324e-03, 1.67919509e-03,
       -5.94415516e-03, -1.50342018e-03, -1.75656658e-03, 4.31400212e-03,
       -2.13522604e-03, 4.14709235e-03, -2.93143739e-06, 7.89937447e-04,
       -7.30070099e-03, 1.09700477e-02, 5.01356274e-03, 4.68471413e-03,
       5.82026877e-03, 1.48540083e-03, 4.05739341e-03, -8.29922780e-03,
       -5.57721034e-03, 9.10428120e-04, 9.02448781e-03, 4.45684325e-03,
       1.18699146e-03, 6.34510862e-03, 3.23700299e-03, 4.17489838e-03,
       -1.74101314e-03, -5.74219972e-03, 5.83785761e-04, -6.67225802e-03,
       -1.83790247e-03, -3.19769233e-03, 5.74594783e-03, -5.17192483e-03,
       3.28071008e-04, -5.21743111e-03, -6.58510660e-04, -1.11687165e-02,
       2.02836096e-03, 2.12584389e-03, 6.67277724e-04, 5.82533656e-03,
       2.29429803e-03, 1.00701733e-03, -7.12559326e-03, 2.50324095e-03,
       -8.28679011e-04, -2.34340667e-03, 1.42790307e-03, -9.80723184e-04,
       7.18448311e-03, -1.19845872e-03, 2.17006746e-04, -3.15556792e-03,
       -7.41319032e-03, -4.55902796e-03, 1.98943797e-03, 9.37452656e-04,
       -3.49441863e-04, 6.80079963e-03, 4.43970086e-03, 6.14397135e-03,
       5.52973012e-04, 1.78062939e-03, 2.91848881e-03, 2.77110119e-03,
       9.44599800e-04, 3.13952565e-03, 4.84836148e-03, 7.13035790e-03,
       1.23531814e-03, -3.44508654e-03, -3.90736503e-04, -2.30828929e-03,
       -4.59642196e-03, -2.43974128e-03, 2.94767087e-03, 4.32064617e-03,
       9.36263613e-03, 1.65982347e-03, -4.07223031e-03, -1.28823763e-03,
       -5.69188502e-03, 5.22785028e-03, -2.62792734e-03, 1.63859059e-03,
       5.05461032e-03, 7.28273857e-03, 3.55262752e-03, 1.39741169e-03,
       -1.23616774e-03, 3.20861978e-03, 4.51744394e-03, -6.64347736e-03,
       3.04886606e-03, 8.90911184e-03, 9.63379815e-03, 3.29666631e-03,
       -7.13524595e-03, -6.94623496e-03, -1.07226393e-03,
       -2.58773263e-03, 3.38180899e-03, 2.68249796e-03, 5.61980903e-03,
       6.53621415e-03, 3.51958163e-03, -5.47793170e-04, 5.39044675e-04,
       -2.17940216e-03, 2.33615842e-03, 3.87579971e-03, -3.65347591e-06,
       5.00332564e-03, 7.35364296e-03, 5.46344882e-03, 3.03349271e-03,
       2.34328327e-03, 7.23702717e-04, -5.31889556e-04, -3.16337752e-03,
       3.24946223e-03, 6.29879907e-03, 2.49950704e-03, 2.96001649e-03,
       -1.45333738e-03, -4.37925616e-03, 1.68147287e-03, -5.44978213e-03,
       -8.41135718e-03, 2.15890724e-03, 2.11261236e-03, 6.40373165e-03,
       5.45796426e-03, 5.30243199e-03, 1.49227190e-03, 4.77892999e-03,
       5.77718019e-03, -1.42900506e-03, -3.32076428e-03, 2.54751556e-03,
       1.74890342e-03, 6.11802703e-03, 2.03542877e-03, 2.17255065e-03,
       3.75880540e-04, 1.10167041e-02, 4.83901845e-03, -1.53640914e-03,
       4.08201804e-03, 2.82829604e-03, 5.54157048e-03, 7.04045757e-04,
       3.33303120e-03, 5.02231531e-03, -3.59000126e-03, -7.47904647e-03,
       -7.48408143e-04, 1.81634285e-04, 5.54956961e-04, 7.26874964e-03,
       7.71006849e-03, 1.75888336e-03, -4.51927679e-03, -7.93420896e-03,
       1.59974792e-04, 1.76271412e-03, 7.41395168e-03, 6.08533015e-03,
       9.41603724e-03, 5.37839625e-03, 1.22946792e-03, -6.30769972e-03,
       9.33266897e-03, 8.08067620e-03, -1.81094743e-03, 1.81943213e-03,
       2.36449487e-04, 3.31597659e-03, -2.02694605e-03, 1.48142804e-03,
       3.06562474e-03, 1.16845120e-04, 9.96563770e-03, -2.69519095e-03,
       3.08779418e-03, 5.03938121e-04, 1.56399386e-03, -3.38498154e-03,
       1.40362186e-03, -6.09635562e-03, -1.38084913e-04, 2.89587653e-03,
       3.57022509e-03, 9.43961460e-03, 4.36691800e-03, 6.10581646e-03,
       -3.31742177e-03, -1.71730283e-03, -4.52161347e-03, 5.05643024e-04,
       4.51888470e-03, 2.67119682e-03, 8.10283702e-03, 1.25124573e-03,
       2.85446947e-03, -5.99989807e-03, -2.16903910e-03, -8.47878121e-03,
       -1.99548970e-03, 2.80617177e-03, -1.97480689e-03, 3.31267901e-03,
       -2.75161769e-03, 8.43995716e-03, 3.89567320e-03, 7.18292641e-03,
       8.46113777e-04, -6.27681892e-03, -5.06199477e-03, -1.06307969e-03,
       5.39321778e-03, -5.25292335e-03, 4.08074493e-03, -2.14710436e-03,
       4.87597287e-03, 6.38180599e-03, -8.46845564e-04, 5.63216272e-05,
       1.53878622e-03, 4.19965200e-03, -1.43052268e-04, 6.65329816e-03,
       -4.25865059e-04, 5.38206566e-03, 2.88595492e-03, -3.93011887e-03,
       -6.41936623e-03, 2.29614298e-03, 3.89291672e-03, -8.25174339e-03,
       6.87753502e-03, -2.08496395e-03, 3.90248629e-03, 6.06643129e-03,
       -7.81047915e-04, 1.19001733e-03, 6.77061407e-03, 8.82217940e-03,
       5.89041389e-04, 3.26526910e-03, -5.45237563e-05, 8.20811745e-03,
       5.90972835e-03, -1.76209607e-03, 1.30195543e-03, 7.33000226e-03,
       7.63950823e-03, -3.64081329e-03, -1.73102668e-03, -4.11477551e-04,
       2.16178433e-03, -1.50288874e-03, 1.61413301e-03, -1.08554878e-03,
       9.85744596e-03, 5.63505664e-03, -3.74114024e-03, 5.55435568e-03,
       2.49628350e-03, 3.54526332e-03, 5.58741158e-03, 1.63437449e-03,
       3.53419944e-03, 1.13789905e-02, 2.17825966e-03, -3.89110413e-03,
       3.85221909e-03, -3.44121829e-04, -5.63142169e-03, -3.96283390e-03,
       -7.36193033e-04, 8.21500435e-04, 4.73943725e-03, 5.42314723e-03,
       -3.50084365e-03, 1.48774835e-03, 4.54034144e-03, 2.87252874e-03,
       -2.41283560e-03, -3.27758375e-03, -1.04164843e-04,
       -3.85975931e-04, 1.16082584e-03, -7.10713398e-03, 1.35763222e-03,
       7.13393418e-03, 2.60875351e-03, -1.37004990e-03, 1.17118715e-03,
       4.59389808e-03, 1.10217044e-02, 4.28004982e-03, -2.81565241e-03,
       6.52206317e-03, 3.12887039e-03, -5.22995740e-03, -8.92149284e-03,
       -1.74132513e-03, 5.12204319e-03, 9.17889085e-03, 4.55371011e-03,
       -3.31224152e-03, 6.19908608e-03, 2.00462318e-03, -6.95085898e-03,
       -4.71555023e-03, -4.35725693e-03, -5.79154724e-03,
       -5.52147534e-03, -5.90780146e-05, -9.50607937e-03,
       -8.85520014e-04, 1.39059103e-03, 1.64899568e-03, -1.96180743e-04,
       2.03075330e-03, -8.25012289e-03, -6.77917432e-03, 4.91385441e-03,
       1.18129118e-03, 8.56866036e-03, 3.09080654e-03, 1.20330416e-03,
       5.89803746e-03, 8.33789003e-04, 1.08062953e-03, 2.77517946e-04,
       2.31763045e-03, -4.48106229e-03, 5.06921951e-03, -1.63396995e-03,
       -6.99725468e-03, 1.34086260e-03, 4.33351379e-03, -7.83940963e-03,
       -7.02300202e-03, 1.98668335e-04, -3.27579142e-03, 9.88593977e-03,
       1.28432165e-03, 6.43044943e-04, 1.01267714e-02, -1.60742714e-03,
       -6.51226332e-03, -6.10821694e-03, 3.39967315e-03, 9.05281166e-04,
       9.64806229e-03, 5.57574560e-04, -1.53649261e-03, -1.80786150e-03,
       -2.22391798e-04, -7.10189948e-03, -4.79844073e-03, 2.02088570e-03,
       -3.05533875e-03, 6.53478410e-03, 2.86558387e-03, 1.45656522e-04,
       2.43036659e-03, 5.87286148e-03, -9.15144105e-03, -4.86025307e-03,
       -8.67691240e-04, -2.22670473e-03, 9.23028495e-03, 3.98365501e-03,
       2.11469783e-03, 5.42529859e-03, 2.93703796e-03, -4.66266368e-03,
       -3.55731114e-03, -4.76256711e-03, -1.09988460e-02, 4.65596095e-03,
       9.05265566e-03, 3.73339234e-03, 4.50686831e-03, 4.83788084e-03,
       -4.91811428e-03, -2.42054020e-03, 6.56436372e-04, -2.00739526e-03,
       5.89011982e-03, 5.74920652e-03, 2.13049352e-04, 4.07533627e-03,
       -2.26244330e-03, -5.58749679e-03, -1.67216430e-03, 6.87802676e-04,
       -9.11194365e-04, 7.01742200e-03, -1.28517521e-03, -1.69529219e-03,
       -1.14316621e-03, 3.19724088e-03, -1.69670489e-03, -3.99670098e-03,
       -2.13399692e-03, -1.03087807e-02, 2.99257133e-03, 1.15555031e-02,
       3.26085859e-03, 4.37705545e-03, -3.12882406e-03, -4.80666663e-03,
       -4.49506193e-03, 4.32476262e-03, -4.97300597e-03, 4.56569903e-03,
       2.01067887e-03, -6.73582125e-03, 9.88246873e-04, -2.23268336e-03,
       -1.89209997e-03, -2.53632257e-04, -5.94128971e-04,
       -3.08546191e-03, 5.13666589e-03, 2.33481638e-03, 2.70614470e-03,
       -7.82833959e-04, 1.23051438e-03, -5.74001018e-03, -1.95477670e-03,
       -3.84058710e-03, -6.78558601e-04, 8.76578223e-03, 1.30478963e-02,
       7.99791794e-03, 5.99652121e-05, -7.09902204e-04, -1.09587330e-03,
       -9.38476296e-04, 4.35217656e-03, -1.02131604e-03, 5.97619452e-03,
       -1.29956042e-03, -8.13893508e-03, -9.01110296e-04,
       -8.05425807e-04, -5.36330231e-03, -2.60696490e-03, 2.82388210e-04,
       3.70441645e-04, 7.51078827e-03, 4.76438273e-03, -8.23054556e-03,
       -3.28061869e-03, -3.59447696e-03, 5.91941411e-03, 4.59338352e-03,
       9.72171687e-03, -1.05567253e-03, -3.83933284e-03, -9.09236446e-03,
       -8.30298755e-03, -5.45401499e-03, -5.16439043e-03, 7.07253441e-03,
       3.00357025e-03, 6.44342601e-03, -4.62899823e-03, 2.16629403e-03,
       -4.33352496e-03, -3.15864128e-03, -3.74307903e-03, 2.60068988e-03,
       6.54339138e-03, 1.27850501e-02, 1.35315089e-02, 2.00360734e-03,
       2.04619486e-03, -5.73159661e-03, -5.55486931e-03, -2.05236627e-03,
       4.35860967e-03, 6.40426436e-03, 4.11513774e-03, 4.64026304e-03,
       -2.79481406e-03, -3.33187170e-03, -7.85974599e-03,
       -6.48571551e-03, 8.50738797e-06, -5.72778657e-03, -3.56938952e-04,
       2.24734657e-03, 2.43792310e-03, -1.84353930e-03, -2.10820162e-03,
       -4.39884519e-04, 7.51020969e-04, -2.53001414e-03, -8.45469441e-03,
       -7.17740832e-03, 1.56737643e-03, 2.79374281e-03, -3.41091398e-03,
       4.01486456e-03, 4.73546702e-03, 4.39018058e-03, -3.33532342e-03,
       1.79355335e-03, -2.18561455e-03, -3.62476771e-04, 3.74036783e-04,
       -6.25423249e-03, -1.82805187e-03, -2.90463940e-04, 3.27935151e-04,
       7.03288752e-05, 7.31602451e-03, -4.62598028e-03, 4.70150076e-03,
       4.86585172e-03, -4.78153769e-03, 7.80814793e-03, 6.12663245e-03,
       6.08998490e-03, 8.35693441e-03, -9.87450592e-03, -6.41659414e-03,
       6.85377396e-04, 3.36645124e-03, -8.13427102e-03, 4.07774467e-03,
       1.40780816e-03, -1.28105003e-03, -3.86505900e-03, -1.29109453e-02,
       -3.19250533e-03, 1.17827381e-03, 4.07634396e-03, -3.64073063e-03,
       2.91141076e-03, 5.67228626e-03, 8.52237863e-04, -7.89919682e-03,
       2.52388557e-03, -1.05022523e-03, 2.32831761e-03, 3.24597163e-03,
       -2.77873175e-03, 7.15138204e-03, 5.04504703e-03, 2.72424030e-03,
       3.54931806e-03, -8.57424270e-03, -7.82158342e-04, -1.36439758e-03,
       3.62911238e-03, -1.06873375e-03, 5.50010474e-03, 9.32347402e-03,
       2.93641072e-03, -7.52377696e-03, -9.16065741e-03, 2.68746982e-03,
       7.22371973e-03, 5.15146786e-03, -3.38636176e-03, 8.02711025e-03,
       6.49460871e-03, 1.67849264e-03, -9.40405484e-03, -1.32202646e-02,
       2.00320454e-03, 2.77643465e-03, 5.12746768e-03, -3.68036190e-03,
       4.14418709e-03, 1.05142535e-04, -1.10793475e-03, -1.36684300e-02,
       -7.54177431e-03, 3.36308964e-04, 2.10169493e-03, 5.02986694e-03,
       9.00317627e-06, 7.90399592e-03, 7.60763464e-03, 8.25581327e-03,
       -1.85513491e-05, -6.37037167e-03, -1.12305384e-03, 2.35930740e-04,
       2.08841823e-03, 7.14669644e-04, 3.89877823e-03, 1.77107088e-03,
       3.69815109e-03, -5.65072929e-04, -7.12304655e-03, 7.36502837e-03,
       7.28326803e-03, 7.38040311e-03, 3.31815961e-03, 2.66127847e-03,
       -1.96855143e-03, 1.49285363e-03, -4.82228398e-03, 3.82354541e-04,
       4.69855824e-03, 7.33065791e-03, 8.94654449e-03, 5.29762078e-03,
       -1.66293769e-03, -6.40572375e-03, -1.00160409e-02, 2.50548800e-03,
       6.78917568e-04, 4.54877969e-03, 4.31825966e-03, 3.27983568e-03,
       2.38660630e-03, 3.23498086e-03, -5.18052082e-04, 5.29049023e-04,
       2.48980150e-03, -1.94302166e-03, 1.46969652e-03, 3.68294935e-03,
       8.61292146e-03, 4.59253788e-03, -6.72256938e-05, -5.28450357e-03,
       -4.06447845e-03, 2.37645625e-04, 4.36889613e-03, 5.34917600e-03,
       7.48588331e-03, 1.15378806e-02, 9.19146836e-03, 2.71349424e-03,
       -1.42364646e-03, -8.71901214e-03, 1.23280822e-03, 1.96629809e-03,
       5.58065576e-03, 6.42482936e-03, 1.34246089e-02, 5.54149225e-03,
       3.35378712e-03, -2.23583472e-03, -8.60310439e-03, -3.98345524e-03,
       -2.54945969e-03, 1.57721969e-03, 6.48168055e-03, 1.17932782e-02,
       3.90308443e-03, 4.17060358e-03, -1.43117819e-03, -5.11816144e-03,
       -3.78107349e-03, -6.07286347e-04, 3.46462196e-03, 5.71848964e-03,
       1.39364582e-02, 7.02870730e-03, 5.75176440e-03, -1.03215675e-03,
       -6.73678331e-03, -7.65895797e-03, 3.25316750e-03, 1.11808060e-02,
       9.93034057e-03, 1.08001791e-02, 4.58773086e-03, 3.05098784e-03,
       -2.99422233e-03, -4.55430429e-03, -5.53884171e-03,
       -4.48796229e-04, 7.77216954e-03, 8.15219060e-03, 1.17587820e-02,
       5.40626794e-03, 2.59486353e-03, 1.89192477e-03, -7.03331316e-03,
       -6.91255508e-03, 6.01350388e-04, 2.56162463e-03, 6.00512698e-03,
       1.22559136e-02, 7.05041550e-03, 5.25221648e-03, 5.36474923e-04,
       2.48349924e-03, -3.66295362e-03, -7.54587760e-04, 4.19653137e-04,
       4.21298668e-03, 1.00101372e-02, 3.11007228e-04, 1.67155042e-04,
       3.25058377e-03, 3.31067760e-03, -1.71864859e-03, -8.50013108e-04,
       4.44093108e-04, 3.59588623e-04, 6.71765255e-03, 2.53743678e-03,
       2.69124378e-03, 1.44813536e-03, -6.38553919e-03, -5.50763309e-03,
       4.54426336e-04, -1.49011635e-03, 1.49768230e-03, 5.21753449e-03,
       4.92777862e-03, 1.08608557e-02, 3.60308611e-03, 4.36446397e-03,
       5.95708750e-03, -9.35160846e-04, -6.07423205e-03, 1.09665765e-04,
       4.04215511e-03, -3.43209296e-03, -1.44484546e-03, 4.52380424e-04,
       3.35878180e-03, 2.81949644e-03, 1.93473375e-06, -4.63035144e-03,
       3.99256358e-03, 3.64939054e-03, -3.28419521e-03, 5.62436832e-03,
       -6.64633932e-04, 8.67567491e-03, 7.75915524e-03, 2.46437942e-03,
       -6.66255597e-04, 3.49640497e-03, 5.31202927e-03, 1.27041503e-03,
       7.32913567e-03, 1.03054463e-03, 3.38908075e-03, 3.30975233e-03,
       1.45368499e-03, -5.67971729e-03, 2.66410061e-04, 6.94968505e-03,
       1.26660441e-03, 8.16215761e-03, -3.80141195e-03, -2.22191028e-03,
       -5.68373536e-04, -1.78281264e-03, -2.71217385e-03, 6.40655681e-03,
       4.86831181e-03, -3.85051337e-03, 6.27123564e-03, 4.23034711e-04,
       9.26313922e-03, -1.38336106e-03, -2.70429021e-03, -8.83608777e-03,
       -7.31836190e-04, 4.42431355e-03, -5.27300360e-03, 6.62219245e-03,
       2.40473729e-03, 1.03459256e-02, 2.95865489e-03, 1.86156263e-04,
       -5.37011540e-03, 3.04135541e-03, 7.31984526e-03, 2.90787942e-03,
       6.56446628e-03, 2.98720645e-03, 8.20030982e-04, 4.29368671e-03,
       -1.44166872e-03, -5.54842362e-03, 3.90260643e-03, 3.41699226e-03,
       6.80400245e-03, 4.13081376e-03, 6.93229074e-03, 5.28110703e-03,
       6.19332166e-03, -2.61130487e-03, -8.51120241e-03, 1.07824465e-03,
       7.72233866e-03, 1.52399158e-03, 8.40012543e-03, 5.05928090e-03,
       9.78227332e-03, 4.12622094e-03, -3.77536961e-03, -5.59094362e-03,
       2.84050225e-06, 6.97467197e-03, 7.83343893e-03, 3.69782746e-03,
       3.73848318e-03, 4.12152382e-03, -9.39043530e-05, -2.73403758e-03,
       -6.57339534e-03, 4.51675802e-03, 3.00414860e-03, 2.76491221e-04,
       2.81136506e-03, 2.37792637e-03, 5.13670873e-03, 8.80575739e-04,
       -7.84246810e-03, -1.29407365e-03, 8.71087145e-03, 1.11648431e-02,
       6.10701647e-03, 5.29728178e-03, 3.04366066e-03, 6.07355963e-03,
       -3.14426026e-03, -5.65166213e-03, -2.67820153e-03, 2.39702244e-03,
       5.23957703e-03, -7.85326934e-04, 2.41266168e-03, -2.59785680e-03,
       1.77477789e-03, -5.21115679e-03, -3.46655166e-03, 4.17401874e-03,
       6.39376603e-03, 8.84235557e-03, 8.72302684e-04, 4.92258696e-03,
       2.04535224e-03, 4.03423933e-03, -5.67649584e-03, -3.03089526e-03,
       1.42638746e-03, 6.54295320e-03, 1.06424224e-02, 7.15319114e-03,
       2.72396905e-03, -1.89455866e-03, 3.46523034e-03, -9.91624314e-04,
       2.22656759e-03, 2.20649363e-03, 4.36091749e-03, 8.27629492e-03,
       8.22327565e-04, 2.41678231e-03, -4.81358217e-03, -3.53119918e-03,
       -3.31783830e-03, -4.06463351e-03, 4.36437828e-03, 4.74863732e-03,
       9.95890610e-03, 2.88724038e-03, 1.42387650e-03, 4.47156886e-03,
       6.81186852e-04, -6.31134352e-03, -8.35445593e-04, 4.69445856e-03,
       7.26663461e-03, 8.13791528e-03, -5.79988025e-03, 2.00501201e-03,
       7.47980957e-04, -5.42407902e-03, -2.77725980e-03, 2.81338813e-03,
       2.81948829e-03, 3.72929638e-03, 4.56664106e-03, 4.47024009e-04,
       7.13334419e-03, 3.77918186e-04, 1.72276073e-03, -1.53430470e-03,
       7.66456535e-04, 1.75787392e-03, 6.54760050e-03, 5.98106347e-03,
       -2.76098552e-04, 1.04843751e-02, 4.74043563e-03, -1.88297476e-03,
       -3.42560583e-03, 1.23332115e-03, 3.62440362e-03, 8.13306775e-03,
       7.50189507e-03, -6.98208250e-03, 4.76487540e-03, 4.04323684e-03,
       -2.77426298e-04, -4.28925408e-03, -2.47252150e-03, 4.86241048e-03,
       7.25961337e-03, 4.74115508e-03, -1.11416413e-03, 4.46472364e-03,
       3.73114645e-03, -5.96887758e-03, -8.79844930e-03, 1.30606699e-03,
       4.62998776e-03, 1.06040435e-02, 5.03200712e-03, 1.15837401e-03,
       9.26942565e-03, 7.19431276e-03, -2.73399986e-03, -4.80877701e-03,
       5.30236308e-03, 4.94615221e-03, 1.13113783e-02, 5.71323326e-03,
       -1.34675560e-04, 8.86028912e-03, 1.82863965e-03, -6.48933416e-03,
       -2.52069766e-03, 2.31384882e-03, 8.42968747e-03, 1.11450432e-02,
       5.54742990e-03, 2.74694146e-04, 6.82322588e-03, 4.14503366e-03,
       -3.59741598e-03, -5.22698462e-03, 5.48527623e-03, 5.16775297e-03,
       8.07010569e-03, 6.28654845e-03, -6.61421008e-03, 5.34376083e-03,
       3.12758586e-03, -4.42916341e-03, -1.99772906e-03, 3.08134779e-03,
       6.20283373e-03, 8.64581112e-03, 6.73546270e-03, -3.64134624e-03,
       6.16933219e-03, -1.92982145e-03, -7.10053043e-03, -4.68409481e-03,
       -2.72850646e-03, 6.80811796e-03, 1.40619455e-02, 1.42917344e-02,
       5.11617726e-03, 2.58439849e-03, -6.88456185e-03, -1.05067985e-02,
       -8.97911470e-03, 4.26070113e-03, 7.98852649e-03, 8.10507964e-03,
       7.41138216e-03, -7.41604343e-03, 2.10963027e-03, -2.60234391e-03,
       -3.45820910e-03, -1.69727788e-03, 3.86691210e-03, 9.00938828e-03,
       1.46581475e-02, 1.57270003e-02, -3.06330714e-03, -3.57770338e-03,
       -6.43670931e-03, -4.15306306e-03, -7.31444871e-03,
       -1.43972831e-03, 5.94658172e-03, 5.81988599e-03, 7.96357449e-03,
       1.15530891e-03, 3.89922666e-03, -4.84785903e-03, -4.57767351e-03,
       -6.59844605e-04, 3.42893158e-03, 5.77098806e-04, 1.10336608e-04,
       5.98194730e-03, -4.12068563e-03, 7.73987453e-03, -4.16345848e-03,
       -5.67137438e-04, 7.78219849e-03, 4.77100071e-03, 8.16001743e-03,
       7.71122938e-03, 6.38002157e-03, -7.88765308e-03, 2.99492455e-03,
       -1.34415517e-04, 8.20625719e-05, 6.32370880e-04, 7.75860762e-03,
       3.26957204e-03, 4.74069128e-03, 6.96709007e-03, -1.09451655e-02,
       -5.03881056e-05, -6.81276759e-03, -9.69661225e-04, 3.25424829e-03,
       5.93496207e-03, -5.02989977e-04, 1.71929633e-03, 2.90678721e-03,
       -8.65368173e-03, 8.68583750e-03, 1.28261524e-03, 2.19919789e-03,
       2.15295493e-03, 1.02122137e-02, 1.71254418e-04, 1.12866843e-03,
       -1.39717676e-03, -8.47136322e-03, 5.51226689e-03, 1.06540686e-02,
       3.86192952e-03, 9.45938565e-03, 3.36688221e-03, 5.45231532e-03,
       7.79463118e-03, 8.46373755e-03, -8.87262821e-03, -4.49397182e-03,
       -4.78484901e-03, -1.64759415e-03, -5.47324249e-04, 6.81634387e-03,
       1.40827720e-03, 4.48793452e-03, 5.08103287e-03, -9.10834968e-03,
       1.28145970e-04, 1.52569485e-03, 3.60806286e-03, 8.16166028e-03,
       6.44975435e-03, 1.74594158e-03, 1.61322509e-03, -1.35482580e-04,
       -9.11973417e-03, 2.88372394e-03, 6.50981208e-03, 3.02477297e-03,
